{"learner":{"attributes":{"scikit_learn":"{\"_estimator_type\": \"classifier\"}"},"feature_names":["home_team_id","away_team_id","home_odds","draw_odds","away_odds","home_form","home_att","home_def","away_form","away_att","away_def"],"feature_types":["int","int","float","float","float","float","float","float","float","float","float"],"gradient_booster":{"model":{"cats":{"enc":[],"feature_segments":[],"sorted_idx":[]},"gbtree_model_param":{"num_parallel_tree":"1","num_trees":"600"},"iteration_indptr":[0,3,6,9,12,15,18,21,24,27,30,33,36,39,42,45,48,51,54,57,60,63,66,69,72,75,78,81,84,87,90,93,96,99,102,105,108,111,114,117,120,123,126,129,132,135,138,141,144,147,150,153,156,159,162,165,168,171,174,177,180,183,186,189,192,195,198,201,204,207,210,213,216,219,222,225,228,231,234,237,240,243,246,249,252,255,258,261,264,267,270,273,276,279,282,285,288,291,294,297,300,303,306,309,312,315,318,321,324,327,330,333,336,339,342,345,348,351,354,357,360,363,366,369,372,375,378,381,384,387,390,393,396,399,402,405,408,411,414,417,420,423,426,429,432,435,438,441,444,447,450,453,456,459,462,465,468,471,474,477,480,483,486,489,492,495,498,501,504,507,510,513,516,519,522,525,528,531,534,537,540,543,546,549,552,555,558,561,564,567,570,573,576,579,582,585,588,591,594,597,600],"tree_info":[0,1,2,0,1,2,0,1,2,0,1,2,0,1,2,0,1,2,0,1,2,0,1,2,0,1,2,0,1,2,0,1,2,0,1,2,0,1,2,0,1,2,0,1,2,0,1,2,0,1,2,0,1,2,0,1,2,0,1,2,0,1,2,0,1,2,0,1,2,0,1,2,0,1,2,0,1,2,0,1,2,0,1,2,0,1,2,0,1,2,0,1,2,0,1,2,0,1,2,0,1,2,0,1,2,0,1,2,0,1,2,0,1,2,0,1,2,0,1,2,0,1,2,0,1,2,0,1,2,0,1,2,0,1,2,0,1,2,0,1,2,0,1,2,0,1,2,0,1,2,0,1,2,0,1,2,0,1,2,0,1,2,0,1,2,0,1,2,0,1,2,0,1,2,0,1,2,0,1,2,0,1,2,0,1,2,0,1,2,0,1,2,0,1,2,0,1,2,0,1,2,0,1,2,0,1,2,0,1,2,0,1,2,0,1,2,0,1,2,0,1,2,0,1,2,0,1,2,0,1,2,0,1,2,0,1,2,0,1,2,0,1,2,0,1,2,0,1,2,0,1,2,0,1,2,0,1,2,0,1,2,0,1,2,0,1,2,0,1,2,0,1,2,0,1,2,0,1,2,0,1,2,0,1,2,0,1,2,0,1,2,0,1,2,0,1,2,0,1,2,0,1,2,0,1,2,0,1,2,0,1,2,0,1,2,0,1,2,0,1,2,0,1,2,0,1,2,0,1,2,0,1,2,0,1,2,0,1,2,0,1,2,0,1,2,0,1,2,0,1,2,0,1,2,0,1,2,0,1,2,0,1,2,0,1,2,0,1,2,0,1,2,0,1,2,0,1,2,0,1,2,0,1,2,0,1,2,0,1,2,0,1,2,0,1,2,0,1,2,0,1,2,0,1,2,0,1,2,0,1,2,0,1,2,0,1,2,0,1,2,0,1,2,0,1,2,0,1,2,0,1,2,0,1,2,0,1,2,0,1,2,0,1,2,0,1,2,0,1,2,0,1,2,0,1,2,0,1,2,0,1,2,0,1,2,0,1,2,0,1,2,0,1,2,0,1,2,0,1,2,0,1,2,0,1,2,0,1,2,0,1,2,0,1,2,0,1,2,0,1,2,0,1,2,0,1,2,0,1,2,0,1,2,0,1,2,0,1,2,0,1,2,0,1,2,0,1,2,0,1,2,0,1,2,0,1,2,0,1,2,0,1,2,0,1,2,0,1,2,0,1,2,0,1,2,0,1,2,0,1,2,0,1,2,0,1,2,0,1,2,0,1,2,0,1,2,0,1,2,0,1,2,0,1,2,0,1,2,0,1,2,0,1,2,0,1,2,0,1,2],"trees":[{"base_weights":[1.054909E-1,4.691234E-1,-2.502833E-1,2.5971064E-1,6.714759E-1,-5.429069E-1,-1.554628E-1,2.968985E-1,-3.713506E-1,1.1461151E0,6.0954714E-1,-6.6673976E-1,-3.0433172E-1,-7.807813E-3,-2.4643281E-1,3.44096E-1,-6.91838E-2,-3.251087E-2,1.17132686E-1,-1.5550078E-3,6.2421966E-2,6.314694E-1,-1.847126E-1,-3.302255E-1,-3.681841E-2,-4.9422655E-1,1.23085365E-1,3.4433666E-1,-1.9553344E-1,-3.011968E-1,-4.2147767E-2,1.4210211E-2,3.2761034E-2,2.0749195E-2,-1.5810031E-2,2.7618779E-2,-2.2572163E-2,2.8123612E-2,4.3736745E-2,1.0004948E-2,-2.522271E-2,-2.8850172E-2,2.7618779E-2,-3.0096153E-2,-5.1812576E-3,1.6815891E-2,-1.5273678E-2,2.0464076E-2,-2.522271E-2,-2.6002085E-2,-2.9893832E-3,-1.9054586E-2,-2.0267155E-3,7.29872E-3,-1.5288735E-2],"categories":[],"categories_nodes":[],"categories_segments":[],"categories_sizes":[],"default_left":[0,0,0,0,0,0,0,0,0,0,0,0,0,0,0,0,0,0,0,0,0,0,0,0,0,0,0,0,0,0,0,0,0,0,0,0,0,0,0,0,0,0,0,0,0,0,0,0,0,0,0,0,0,0,0],"id":0,"left_children":[1,3,5,7,9,11,13,15,17,19,21,23,25,27,29,31,33,-1,35,-1,-1,37,39,41,-1,43,45,47,49,51,53,-1,-1,-1,-1,-1,-1,-1,-1,-1,-1,-1,-1,-1,-1,-1,-1,-1,-1,-1,-1,-1,-1,-1,-1],"loss_changes":[8.362085E1,1.3366646E1,8.986156E0,3.8338194E0,4.0597916E0,2.1488514E0,3.333315E0,2.6223135E0,1.3394896E0,2.152628E0,2.647232E0,9.6502113E-1,2.417831E0,6.3931923E0,1.7058163E0,2.2992516E0,2.2849042E0,0E0,1.2931114E0,0E0,0E0,1.885685E0,6.76444E-1,2.639028E0,0E0,7.918315E-1,9.922298E-1,2.0606654E0,2.746538E0,2.5039062E0,1.7128085E0,0E0,0E0,0E0,0E0,0E0,0E0,0E0,0E0,0E0,0E0,0E0,0E0,0E0,0E0,0E0,0E0,0E0,0E0,0E0,0E0,0E0,0E0,0E0,0E0],"parents":[2147483647,0,0,1,1,2,2,3,3,4,4,5,5,6,6,7,7,8,8,9,9,10,10,11,11,12,12,13,13,14,14,15,15,16,16,18,18,21,21,22,22,23,23,25,25,26,26,27,27,28,28,29,29,30,30],"right_children":[2,4,6,8,10,12,14,16,18,20,22,24,26,28,30,32,34,-1,36,-1,-1,38,40,42,-1,44,46,48,50,52,54,-1,-1,-1,-1,-1,-1,-1,-1,-1,-1,-1,-1,-1,-1,-1,-1,-1,-1,-1,-1,-1,-1,-1,-1],"split_conditions":[2.25E0,3.8E0,1.85E0,2.5E1,3E0,2.4E0,2.6E0,2.2E0,1.2E0,8E-1,2.6E0,6E-1,1.4E0,1.2E0,3.7E0,1.8E0,6E-1,-3.251087E-2,1E0,-1.5550078E-3,6.2421966E-2,5.5E0,2.2E0,2.4E0,-3.681841E-2,1.75E0,5.75E0,2.6E0,1E0,1.6E0,1.4E0,1.4210211E-2,3.2761034E-2,2.0749195E-2,-1.5810031E-2,2.7618779E-2,-2.2572163E-2,2.8123612E-2,4.3736745E-2,1.0004948E-2,-2.522271E-2,-2.8850172E-2,2.7618779E-2,-3.0096153E-2,-5.1812576E-3,1.6815891E-2,-1.5273678E-2,2.0464076E-2,-2.522271E-2,-2.6002085E-2,-2.9893832E-3,-1.9054586E-2,-2.0267155E-3,7.29872E-3,-1.5288735E-2],"split_indices":[2,3,4,0,1,9,2,5,8,6,8,6,6,7,2,8,7,0,5,0,0,3,5,7,0,4,2,10,6,6,5,0,0,0,0,0,0,0,0,0,0,0,0,0,0,0,0,0,0,0,0,0,0,0,0],"split_type":[0,0,0,0,0,0,0,0,0,0,0,0,0,0,0,0,0,0,0,0,0,0,0,0,0,0,0,0,0,0,0,0,0,0,0,0,0,0,0,0,0,0,0,0,0,0,0,0,0,0,0,0,0,0,0],"sum_hessian":[6.444568E2,3.1855106E2,3.2590576E2,1.5766669E2,1.6088437E2,7.860351E1,2.4730226E2,1.4939262E2,8.274054E0,1.6548107E1,1.4433626E2,5.056366E1,2.8039846E1,9.469194E1,1.5261032E2,1.3238486E2,1.7007776E1,5.056366E0,3.2176874E0,1.3790089E0,1.5169098E1,1.406589E2,3.677357E0,9.653062E0,4.0910595E1,1.9306124E1,8.733723E0,3.2636543E1,6.2055397E1,1.1997377E2,3.2636543E1,1.1261906E2,1.9765793E1,5.5160356E0,1.149174E1,1.8386785E0,1.3790089E0,1.12159386E2,2.8499516E1,1.8386785E0,1.8386785E0,7.8143835E0,1.8386785E0,1.4709428E1,4.5966964E0,5.975705E0,2.7580178E0,3.0797865E1,1.8386785E0,1.7467445E1,4.458795E1,9.147425E1,2.8499516E1,1.9306124E1,1.3330419E1],"tree_param":{"num_deleted":"0","num_feature":"11","num_nodes":"55","size_leaf_vector":"1"}},{"base_weights":[-1.19180694E-1,-5.6421176E-2,-3.5338572E-1,-1.5586741E-1,1.8777413E-2,-3.7118095E-1,2.3267517E-2,-1.8620892E-1,4.5421612E-1,2.0723085E-1,-2.9821591E-2,-3.9947003E-1,5.1680606E-2,5.1888665E-3,-2.4187833E-1,-2.279189E-2,6.976371E-1,-5.7562537E-2,3.5324487E-1,5.76455E-1,-5.364533E-2,-3.248654E-1,-6.252932E-1,4.6187332E-1,-2.446329E-1,7.2118244E-3,-2.0190677E-2,-1.04241595E-2,-3.2805353E-2,6.035659E-3,5.3977218E-2,9.814195E-3,-1.7456252E-2,9.38384E-3,2.9664386E-2,-2.029253E-2,4.0748406E-2,-5.6458362E-3,7.380565E-3,-1.747095E-2,2.3267517E-2,-1.6626064E-2,-3.2627214E-2,1.6394807E-3,3.2633033E-2,2.3571491E-2,-2.7956923E-2],"categories":[],"categories_nodes":[],"categories_segments":[],"categories_sizes":[],"default_left":[0,0,0,0,0,0,0,0,0,0,0,0,0,0,0,0,0,0,0,0,0,0,0,0,0,0,0,0,0,0,0,0,0,0,0,0,0,0,0,0,0,0,0,0,0,0,0],"id":1,"left_children":[1,3,5,7,9,11,-1,13,15,17,19,21,23,25,27,-1,29,31,33,35,37,39,41,43,45,-1,-1,-1,-1,-1,-1,-1,-1,-1,-1,-1,-1,-1,-1,-1,-1,-1,-1,-1,-1,-1,-1],"loss_changes":[8.785703E0,3.545079E0,2.0145845E0,3.8618546E0,2.4845605E0,1.5073853E0,0E0,2.0800343E0,2.5240576E0,2.1701674E0,3.1508062E0,1.7613811E0,1.1678398E0,2.6139538E0,1.9542427E0,0E0,1.68787E0,1.5948927E0,1.3186402E0,2.26415E0,2.5067935E0,1.9036179E0,5.414009E-3,3.0491954E-1,1.5455782E0,0E0,0E0,0E0,0E0,0E0,0E0,0E0,0E0,0E0,0E0,0E0,0E0,0E0,0E0,0E0,0E0,0E0,0E0,0E0,0E0,0E0,0E0],"parents":[2147483647,0,0,1,1,2,2,3,3,4,4,5,5,7,7,8,8,9,9,10,10,11,11,12,12,13,13,14,14,16,16,17,17,18,18,19,19,20,20,21,21,22,22,23,23,24,24],"right_children":[2,4,6,8,10,12,-1,14,16,18,20,22,24,26,28,-1,30,32,34,36,38,40,42,44,46,-1,-1,-1,-1,-1,-1,-1,-1,-1,-1,-1,-1,-1,-1,-1,-1,-1,-1,-1,-1,-1,-1],"split_conditions":[4.33E0,2.25E0,2.6E1,2.5E1,1E0,3E0,2.3267517E-2,1.7E0,1.9E0,9E0,2E0,5.75E0,9E0,2E0,3.9E0,-2.279189E-2,3.5E0,5E0,1.5E1,3.2E0,2.2E0,3E0,8E-1,1.13E0,1.2E0,7.2118244E-3,-2.0190677E-2,-1.04241595E-2,-3.2805353E-2,6.035659E-3,5.3977218E-2,9.814195E-3,-1.7456252E-2,9.38384E-3,2.9664386E-2,-2.029253E-2,4.0748406E-2,-5.6458362E-3,7.380565E-3,-1.747095E-2,2.3267517E-2,-1.6626064E-2,-3.2627214E-2,1.6394807E-3,3.2633033E-2,2.3571491E-2,-2.7956923E-2],"split_indices":[3,2,0,0,7,6,0,2,2,0,1,3,1,6,3,0,4,0,1,3,7,5,10,2,2,0,0,0,0,0,0,0,0,0,0,0,0,0,0,0,0,0,0,0,0,0,0],"split_type":[0,0,0,0,0,0,0,0,0,0,0,0,0,0,0,0,0,0,0,0,0,0,0,0,0,0,0,0,0,0,0,0,0,0,0,0,0,0,0,0,0,0,0,0,0,0,0],"sum_hessian":[5.9808044E2,4.7266275E2,1.2541773E2,2.0305728E2,2.6960547E2,1.23284775E2,2.1329546E0,1.9409886E2,8.958409E0,5.4603638E1,2.1500183E2,1.1560614E2,7.6786366E0,4.3938866E1,1.5016E2,1.7063637E0,7.2520456E0,1.9623182E1,3.4980453E1,7.2520456E0,2.0774977E2,8.873091E1,2.6875229E1,2.9861364E0,4.6925E0,3.3274094E1,1.0664773E1,1.4034842E2,9.811591E0,3.4127274E0,3.8393183E0,1.0664773E1,8.958409E0,2.1756138E1,1.32243185E1,1.2797728E0,5.972273E0,1.6082478E2,4.6925003E1,8.659795E1,2.1329546E0,3.4127274E0,2.3462502E1,1.2797728E0,1.7063637E0,1.2797728E0,3.4127274E0],"tree_param":{"num_deleted":"0","num_feature":"11","num_nodes":"47","size_leaf_vector":"1"}},{"base_weights":[5.2999705E-3,4.3159345E-1,-1.9939156E-1,3.2025573E-1,1.0540003E0,-6.9017604E-2,-4.7304326E-1,6.5949655E-1,2.6604444E-1,1.1556474E0,-4.173007E-4,4.0876854E-2,-8.019776E-2,-5.086734E-1,3.3180553E-2,7.61081E-1,-1.0361887E-2,2.439147E-1,5.4509427E-2,1.247728E0,6.8781114E-1,-2.1440286E-2,2.1407496E-2,-3.5136807E-1,-4.8709337E-2,-5.2199537E-1,2.1407496E-2,-2.839188E-2,3.928253E-1,4.995588E-2,1.6635505E-2,-6.203332E-4,1.5061893E-2,2.7244283E-2,6.5844886E-2,4.7524396E-2,5.151264E-3,3.5025557E-3,-2.6208265E-2,-3.994934E-3,1.44343525E-2,-2.6702974E-2,5.151264E-3,4.7524396E-2,-2.5875038E-2],"categories":[],"categories_nodes":[],"categories_segments":[],"categories_sizes":[],"default_left":[0,0,0,0,0,0,0,0,0,0,0,0,0,0,0,0,0,0,0,0,0,0,0,0,0,0,0,0,0,0,0,0,0,0,0,0,0,0,0,0,0,0,0,0,0],"id":2,"left_children":[1,3,5,7,9,11,13,15,17,19,21,-1,23,25,27,29,-1,31,-1,33,35,-1,-1,37,39,41,-1,-1,43,-1,-1,-1,-1,-1,-1,-1,-1,-1,-1,-1,-1,-1,-1,-1,-1],"loss_changes":[5.4565945E1,1.3719765E1,1.5040709E1,3.0155182E0,3.2527618E0,2.9135432E0,2.472824E0,2.2031136E0,2.4931412E0,3.3408356E-1,8.5695547E-1,0E0,2.4135523E0,1.8118744E0,2.361309E0,1.8096895E0,0E0,2.187316E0,0E0,3.469658E-1,9.435468E-1,0E0,0E0,2.1816566E0,2.7191923E0,1.0046196E0,0E0,0E0,3.9337704E0,0E0,0E0,0E0,0E0,0E0,0E0,0E0,0E0,0E0,0E0,0E0,0E0,0E0,0E0,0E0,0E0],"parents":[2147483647,0,0,1,1,2,2,3,3,4,4,5,5,6,6,7,7,8,8,9,9,10,10,12,12,13,13,14,14,15,15,17,17,19,19,20,20,23,23,24,24,25,25,28,28],"right_children":[2,4,6,8,10,12,14,16,18,20,22,-1,24,26,28,30,-1,32,-1,34,36,-1,-1,38,40,42,-1,-1,44,-1,-1,-1,-1,-1,-1,-1,-1,-1,-1,-1,-1,-1,-1,-1,-1],"split_conditions":[2.62E0,6E0,5.25E0,1E0,2.8E0,3E0,1.8E0,1.6E0,2.2E0,2E1,2E0,4.0876854E-2,6E-1,1.72E0,1.1E1,3.5E0,-1.0361887E-2,1E0,5.4509427E-2,4E-1,1E0,-2.1440286E-2,2.1407496E-2,9E0,2.2E0,3.2E0,2.1407496E-2,-2.839188E-2,1.53E0,4.995588E-2,1.6635505E-2,-6.203332E-4,1.5061893E-2,2.7244283E-2,6.5844886E-2,4.7524396E-2,5.151264E-3,3.5025557E-3,-2.6208265E-2,-3.994934E-3,1.44343525E-2,-2.6702974E-2,5.151264E-3,4.7524396E-2,-2.5875038E-2],"split_indices":[4,2,4,8,7,3,7,6,10,0,0,0,7,2,1,3,0,7,0,5,5,0,0,1,5,10,0,0,2,0,0,0,0,0,0,0,0,0,0,0,0,0,0,0,0],"split_type":[0,0,0,0,0,0,0,0,0,0,0,0,0,0,0,0,0,0,0,0,0,0,0,0,0,0,0,0,0,0,0,0,0,0,0,0,0,0,0,0,0,0,0,0,0],"sum_hessian":[6.2334937E2,2.0185493E2,4.2149445E2,1.7251038E2,2.934455E1,2.8633167E2,1.3516277E2,2.2230719E1,1.5027966E2,2.6676863E1,2.6676862E0,2.6676862E0,2.8366397E2,1.26270485E2,8.892287E0,2.0007647E1,2.2230718E0,1.4761197E2,2.6676862E0,2.0896875E1,5.779987E0,1.3338431E0,1.3338431E0,2.845532E1,2.5520865E2,1.2493664E2,1.3338431E0,3.1123006E0,5.779987E0,1.2004588E1,8.003058E0,2.7121477E1,1.2049049E2,2.6676862E0,1.8229189E1,3.556915E0,2.2230718E0,8.447673E0,2.0007647E1,2.3431178E2,2.0896875E1,1.2271357E2,2.2230718E0,3.556915E0,2.2230718E0],"tree_param":{"num_deleted":"0","num_feature":"11","num_nodes":"45","size_leaf_vector":"1"}},{"base_weights":[1.01095706E-1,4.47432E-1,-2.4275334E-1,2.4883503E-1,6.377604E-1,-5.302539E-1,-1.5030375E-1,2.8430638E-1,-3.6130056E-1,1.0874218E0,5.7876104E-1,-6.54025E-1,-2.929872E-1,-8.616776E-3,-2.3811594E-1,3.2959294E-1,-6.924494E-2,-3.1993907E-2,1.2176709E-1,-1.7194981E-3,5.9175152E-2,6.125273E-1,6.8773076E-2,-3.2182798E-1,-3.616355E-2,-4.8044893E-1,1.2399113E-1,3.331133E-1,-1.921388E-1,-2.9210567E-1,-3.75548E-2,1.3583541E-2,3.1470142E-2,1.983888E-2,-1.5493144E-2,-2.2252655E-2,2.7566228E-2,2.7746473E-2,4.317699E-2,4.0357083E-2,-1.942811E-2,-2.830264E-2,2.6850928E-2,-2.9342314E-2,-4.947623E-3,2.2636127E-2,-7.5720176E-3,1.9795366E-2,-2.4850333E-2,-2.5579154E-2,-2.9695767E-3,-1.8529851E-2,-1.8817174E-3,5.0359084E-3,-1.9366954E-2],"categories":[],"categories_nodes":[],"categories_segments":[],"categories_sizes":[],"default_left":[0,0,0,0,0,0,0,0,0,0,0,0,0,0,0,0,0,0,0,0,0,0,0,0,0,0,0,0,0,0,0,0,0,0,0,0,0,0,0,0,0,0,0,0,0,0,0,0,0,0,0,0,0,0,0],"id":3,"left_children":[1,3,5,7,9,11,13,15,17,19,21,23,25,27,29,31,33,-1,35,-1,-1,37,39,41,-1,43,45,47,49,51,53,-1,-1,-1,-1,-1,-1,-1,-1,-1,-1,-1,-1,-1,-1,-1,-1,-1,-1,-1,-1,-1,-1,-1,-1],"loss_changes":[7.7133896E1,1.2034546E1,8.564207E0,3.5547352E0,3.7236862E0,2.1205711E0,3.0770154E0,2.4452887E0,1.3164992E0,1.9693966E0,2.4924965E0,9.388275E-1,2.3110683E0,6.0676107E0,1.6430264E0,2.1610937E0,2.1420004E0,0E0,1.2695792E0,0E0,0E0,1.5148277E0,3.7804646E0,2.5246186E0,0E0,7.5679827E-1,9.493639E-1,1.9593296E0,2.6375616E0,2.3869667E0,1.6614472E0,0E0,0E0,0E0,0E0,0E0,0E0,0E0,0E0,0E0,0E0,0E0,0E0,0E0,0E0,0E0,0E0,0E0,0E0,0E0,0E0,0E0,0E0,0E0,0E0],"parents":[2147483647,0,0,1,1,2,2,3,3,4,4,5,5,6,6,7,7,8,8,9,9,10,10,11,11,12,12,13,13,14,14,15,15,16,16,18,18,21,21,22,22,23,23,25,25,26,26,27,27,28,28,29,29,30,30],"right_children":[2,4,6,8,10,12,14,16,18,20,22,24,26,28,30,32,34,-1,36,-1,-1,38,40,42,-1,44,46,48,50,52,54,-1,-1,-1,-1,-1,-1,-1,-1,-1,-1,-1,-1,-1,-1,-1,-1,-1,-1,-1,-1,-1,-1,-1,-1],"split_conditions":[2.25E0,3.8E0,1.85E0,2.5E1,3E0,2.4E0,2.6E0,2.2E0,1.2E0,8E-1,2.2E0,6E-1,1.4E0,1.2E0,3.7E0,1.8E0,6E-1,-3.1993907E-2,1.4E0,-1.7194981E-3,5.9175152E-2,5.75E0,2E0,2.4E0,-3.616355E-2,1.75E0,2.8E0,2.6E0,1E0,1.6E0,1.4E0,1.3583541E-2,3.1470142E-2,1.983888E-2,-1.5493144E-2,-2.2252655E-2,2.7566228E-2,2.7746473E-2,4.317699E-2,4.0357083E-2,-1.942811E-2,-2.830264E-2,2.6850928E-2,-2.9342314E-2,-4.947623E-3,2.2636127E-2,-7.5720176E-3,1.9795366E-2,-2.4850333E-2,-2.5579154E-2,-2.9695767E-3,-1.8529851E-2,-1.8817174E-3,5.0359084E-3,-1.9366954E-2],"split_indices":[2,3,4,0,1,9,2,5,8,6,8,6,6,7,2,8,7,0,7,0,0,3,5,7,0,4,9,10,6,6,10,0,0,0,0,0,0,0,0,0,0,0,0,0,0,0,0,0,0,0,0,0,0,0,0],"split_type":[0,0,0,0,0,0,0,0,0,0,0,0,0,0,0,0,0,0,0,0,0,0,0,0,0,0,0,0,0,0,0,0,0,0,0,0,0,0,0,0,0,0,0,0,0,0,0,0,0,0,0,0,0,0,0],"sum_hessian":[6.4579614E2,3.2158435E2,3.2421182E2,1.585029E2,1.6308147E2,7.773505E1,2.4647676E2,1.5029901E2,8.20388E0,1.689393E1,1.4618753E2,4.993155E1,2.7803497E1,9.472841E1,1.5174835E2,1.332932E2,1.7005823E1,4.997364E0,3.2065165E0,1.3834398E0,1.5510491E1,1.3692094E2,9.2665825E0,9.586987E0,4.0344563E1,1.9075481E1,8.728016E0,3.2813114E1,6.1915295E1,1.1920319E2,3.254516E1,1.1330856E2,1.9984634E1,5.5696588E0,1.1436164E1,1.3668387E0,1.8396778E0,1.13978065E2,2.294288E1,3.251749E0,6.0148335E0,7.7298203E0,1.8571658E0,1.4494709E1,4.5807724E0,3.6855612E0,5.0424542E0,3.0991827E1,1.8212882E0,1.7338339E1,4.4576954E1,9.075393E1,2.8449268E1,2.3835012E1,8.710146E0],"tree_param":{"num_deleted":"0","num_feature":"11","num_nodes":"55","size_leaf_vector":"1"}},{"base_weights":[-1.15185305E-1,-5.428572E-2,-3.4427994E-1,-1.5007581E-1,1.7723776E-2,-3.6194152E-1,2.2708606E-2,-1.7974187E-1,4.372931E-1,2.0074512E-1,-2.9677985E-2,-3.9017105E-1,5.6705516E-2,-3.0137667E-1,-9.2289805E-2,-2.2465413E-2,6.6954577E-1,-5.735226E-2,3.421235E-1,5.5390185E-1,-5.2893452E-2,-3.1656566E-1,-6.1468923E-1,3.636914E-1,-3.2534346E-1,-2.0803891E-2,-4.5938147E-3,4.5883648E-2,-5.588917E-3,5.6886463E-3,5.1669534E-2,9.447849E-3,-1.716389E-2,9.120293E-3,2.8595079E-2,-2.0118278E-2,3.912021E-2,-5.5430233E-3,7.1490887E-3,-1.7048638E-2,2.286397E-2,-1.6236909E-2,-3.2095008E-2,3.552413E-2,-2.021165E-2,-2.430532E-2,1.9028349E-3],"categories":[],"categories_nodes":[],"categories_segments":[],"categories_sizes":[],"default_left":[0,0,0,0,0,0,0,0,0,0,0,0,0,0,0,0,0,0,0,0,0,0,0,0,0,0,0,0,0,0,0,0,0,0,0,0,0,0,0,0,0,0,0,0,0,0,0],"id":4,"left_children":[1,3,5,7,9,11,-1,13,15,17,19,21,23,25,27,-1,29,31,33,35,37,39,41,43,45,-1,-1,-1,-1,-1,-1,-1,-1,-1,-1,-1,-1,-1,-1,-1,-1,-1,-1,-1,-1,-1,-1],"loss_changes":[8.310568E0,3.2640643E0,1.9297352E0,3.6160483E0,2.3553576E0,1.4761505E0,0E0,2.0353713E0,2.3706415E0,2.0571275E0,2.9552665E0,1.7122726E0,1.1322616E0,1.900589E0,2.3518307E0,0E0,1.5743146E0,1.5169206E0,1.224947E0,2.1393578E0,2.3845773E0,1.8361483E0,7.943153E-3,1.6894947E0,2.743563E-1,0E0,0E0,0E0,0E0,0E0,0E0,0E0,0E0,0E0,0E0,0E0,0E0,0E0,0E0,0E0,0E0,0E0,0E0,0E0,0E0,0E0,0E0],"parents":[2147483647,0,0,1,1,2,2,3,3,4,4,5,5,7,7,8,8,9,9,10,10,11,11,12,12,13,13,14,14,16,16,17,17,18,18,19,19,20,20,21,21,22,22,23,23,24,24],"right_children":[2,4,6,8,10,12,-1,14,16,18,20,22,24,26,28,-1,30,32,34,36,38,40,42,44,46,-1,-1,-1,-1,-1,-1,-1,-1,-1,-1,-1,-1,-1,-1,-1,-1,-1,-1,-1,-1,-1,-1],"split_conditions":[4.33E0,2.25E0,2.6E1,2.5E1,1E0,3E0,2.2708606E-2,3.9E0,1.9E0,9E0,2E0,5.75E0,3E0,1.6E0,4E0,-2.2465413E-2,3.5E0,5E0,1.5E1,3.2E0,2.2E0,3E0,8E-1,3.4E0,1.6E0,-2.0803891E-2,-4.5938147E-3,4.5883648E-2,-5.588917E-3,5.6886463E-3,5.1669534E-2,9.447849E-3,-1.716389E-2,9.120293E-3,2.8595079E-2,-2.0118278E-2,3.912021E-2,-5.5430233E-3,7.1490887E-3,-1.7048638E-2,2.286397E-2,-1.6236909E-2,-3.2095008E-2,3.552413E-2,-2.021165E-2,-2.430532E-2,1.9028349E-3],"split_indices":[3,2,0,0,7,6,0,4,2,0,1,3,5,6,4,0,4,0,1,3,7,5,10,6,9,0,0,0,0,0,0,0,0,0,0,0,0,0,0,0,0,0,0,0,0,0,0],"split_type":[0,0,0,0,0,0,0,0,0,0,0,0,0,0,0,0,0,0,0,0,0,0,0,0,0,0,0,0,0,0,0,0,0,0,0,0,0,0,0,0,0,0,0,0,0,0,0],"sum_hessian":[5.960036E2,4.718184E2,1.241852E2,2.0201086E2,2.6980756E2,1.2203257E2,2.152636E0,1.9295912E2,9.051739E0,5.483829E1,2.1496925E2,1.143874E2,7.64517E0,7.968338E1,1.1327574E2,1.6849693E0,7.36677E0,1.961815E1,3.522014E1,7.3499665E0,2.0761928E2,8.7960625E1,2.6426779E1,4.265658E0,3.3795123E0,5.0854546E1,2.8828833E1,1.271934E0,1.1200381E2,3.434013E0,3.932757E0,1.0721394E1,8.896757E0,2.1835924E1,1.3384216E1,1.2708135E0,6.079153E0,1.6054259E2,4.7076702E1,8.581344E1,2.1471808E0,3.3769655E0,2.3049814E1,2.99013E0,1.2755278E0,2.108903E0,1.2706094E0],"tree_param":{"num_deleted":"0","num_feature":"11","num_nodes":"47","size_leaf_vector":"1"}},{"base_weights":[5.4115583E-3,4.1232386E-1,-1.9290201E-1,3.063585E-1,9.961827E-1,-6.650274E-2,-4.609709E-1,6.325042E-1,2.539861E-1,1.0903203E0,-2.1623012E-3,3.945887E-2,-7.744892E-2,-4.963434E-1,3.594626E-2,7.2929424E-1,-1.0244972E-2,2.3241083E-1,5.267192E-2,1.175134E0,6.5487695E-1,2.112007E-2,-2.1378001E-2,-3.4239554E-1,-4.6891198E-2,-5.096452E-1,2.109014E-2,-2.7973656E-2,3.8754895E-1,4.1887287E-2,-6.653091E-4,-6.5409264E-4,1.4345849E-2,2.5935942E-2,6.1952442E-2,4.238568E-3,4.5758795E-2,3.4715466E-3,-2.5666056E-2,-3.8569618E-3,1.3884594E-2,-2.6083648E-2,5.2362443E-3,4.6275392E-2,-2.5448779E-2],"categories":[],"categories_nodes":[],"categories_segments":[],"categories_sizes":[],"default_left":[0,0,0,0,0,0,0,0,0,0,0,0,0,0,0,0,0,0,0,0,0,0,0,0,0,0,0,0,0,0,0,0,0,0,0,0,0,0,0,0,0,0,0,0,0],"id":5,"left_children":[1,3,5,7,9,11,13,15,17,19,21,-1,23,25,27,29,-1,31,-1,33,35,-1,-1,37,39,41,-1,-1,43,-1,-1,-1,-1,-1,-1,-1,-1,-1,-1,-1,-1,-1,-1,-1,-1],"loss_changes":[5.0447575E1,1.2367966E1,1.42116585E1,2.8254166E0,2.9178352E0,2.747523E0,2.3822823E0,2.055544E0,2.3821058E0,2.774582E-1,8.436363E-1,0E0,2.2840643E0,1.7494774E0,2.2834568E0,1.726552E0,0E0,2.0052805E0,0E0,3.0000687E-1,9.4347596E-1,0E0,0E0,2.0924652E0,2.5336525E0,9.731827E-1,0E0,0E0,3.7493696E0,0E0,0E0,0E0,0E0,0E0,0E0,0E0,0E0,0E0,0E0,0E0,0E0,0E0,0E0,0E0,0E0],"parents":[2147483647,0,0,1,1,2,2,3,3,4,4,5,5,6,6,7,7,8,8,9,9,10,10,12,12,13,13,14,14,15,15,17,17,19,19,20,20,23,23,24,24,25,25,28,28],"right_children":[2,4,6,8,10,12,14,16,18,20,22,-1,24,26,28,30,-1,32,-1,34,36,-1,-1,38,40,42,-1,-1,44,-1,-1,-1,-1,-1,-1,-1,-1,-1,-1,-1,-1,-1,-1,-1,-1],"split_conditions":[2.62E0,6E0,5.25E0,1E0,2.8E0,3E0,1.8E0,1.6E0,2.2E0,2E1,5E0,3.945887E-2,6E-1,1.72E0,1.1E1,4.5E0,-1.0244972E-2,1E0,5.267192E-2,4E-1,2E0,2.112007E-2,-2.1378001E-2,9E0,2.2E0,3.2E0,2.109014E-2,-2.7973656E-2,1.53E0,4.1887287E-2,-6.653091E-4,-6.5409264E-4,1.4345849E-2,2.5935942E-2,6.1952442E-2,4.238568E-3,4.5758795E-2,3.4715466E-3,-2.5666056E-2,-3.8569618E-3,1.3884594E-2,-2.6083648E-2,5.2362443E-3,4.6275392E-2,-2.5448779E-2],"split_indices":[4,2,4,8,7,3,7,6,10,0,3,0,7,2,1,2,0,7,0,5,9,0,0,1,5,10,0,0,2,0,0,0,0,0,0,0,0,0,0,0,0,0,0,0,0],"split_type":[0,0,0,0,0,0,0,0,0,0,0,0,0,0,0,0,0,0,0,0,0,0,0,0,0,0,0,0,0,0,0,0,0,0,0,0,0,0,0,0,0,0,0,0,0],"sum_hessian":[6.231684E2,2.0383917E2,4.1932922E2,1.738175E2,3.0021671E1,2.858119E2,1.3351733E2,2.2517046E1,1.5130046E2,2.7350555E1,2.6711154E0,2.71203E0,2.8309988E2,1.2464571E2,8.871617E0,2.0299822E1,2.2172241E0,1.4858133E2,2.7191308E0,2.1470024E1,5.8805323E0,1.3403934E0,1.330722E0,2.8219719E1,2.5488016E2,1.23304245E2,1.3414713E0,3.0742831E0,5.7973337E0,1.7601171E1,2.6986496E0,2.7133503E1,1.2144782E2,2.7138803E0,1.8756144E1,2.2588592E0,3.621673E0,8.4512205E0,1.97685E1,2.3384991E2,2.1030231E1,1.210846E2,2.2196403E0,3.6030176E0,2.1943164E0],"tree_param":{"num_deleted":"0","num_feature":"11","num_nodes":"45","size_leaf_vector":"1"}},{"base_weights":[9.691553E-2,4.2717037E-1,-2.3548114E-1,2.3828661E-1,6.0698473E-1,-5.182122E-1,-1.4529786E-1,2.721213E-1,-3.5159475E-1,1.0354972E0,5.505531E-1,-6.420733E-1,-2.819938E-1,-9.373498E-3,-2.3003107E-1,3.451926E-1,6.449742E-2,-3.1527627E-2,1.275627E-1,-1.906284E-3,5.6326695E-2,5.707656E-1,-1.9136651E-1,-3.1441426E-1,-3.554606E-2,-4.6721795E-1,1.24976516E-1,3.2241282E-1,-1.8880828E-1,-2.8327516E-1,-3.3089787E-2,2.8883502E-2,1.3576989E-2,1.18718045E-2,-9.96998E-3,-2.17674E-2,2.7366921E-2,4.588171E-2,2.6250679E-2,9.188532E-3,-2.5128532E-2,-2.7826382E-2,2.622488E-2,-2.8623527E-2,-4.722795E-3,1.6357653E-2,-1.4495035E-2,1.9158503E-2,-2.4491793E-2,-2.5167814E-2,-2.9488944E-3,-1.8019764E-2,-1.7440141E-3,7.655024E-3,-1.4775142E-2],"categories":[],"categories_nodes":[],"categories_segments":[],"categories_sizes":[],"default_left":[0,0,0,0,0,0,0,0,0,0,0,0,0,0,0,0,0,0,0,0,0,0,0,0,0,0,0,0,0,0,0,0,0,0,0,0,0,0,0,0,0,0,0,0,0,0,0,0,0,0,0,0,0,0,0],"id":6,"left_children":[1,3,5,7,9,11,13,15,17,19,21,23,25,27,29,31,33,-1,35,-1,-1,37,39,41,-1,43,45,47,49,51,53,-1,-1,-1,-1,-1,-1,-1,-1,-1,-1,-1,-1,-1,-1,-1,-1,-1,-1,-1,-1,-1,-1,-1,-1],"loss_changes":[7.1204704E1,1.0902615E1,8.172138E0,3.294567E0,3.443718E0,2.096218E0,2.8383045E0,2.286004E0,1.300908E0,1.819849E0,2.340725E0,9.106598E-1,2.2110074E0,5.7611E0,1.5832119E0,1.7661743E0,1.9110627E0,0E0,1.2287296E0,0E0,0E0,1.8211212E0,6.4051694E-1,2.4292176E0,0E0,7.241683E-1,9.1020477E-1,1.8644032E0,2.5337667E0,2.2751274E0,1.6797962E0,0E0,0E0,0E0,0E0,0E0,0E0,0E0,0E0,0E0,0E0,0E0,0E0,0E0,0E0,0E0,0E0,0E0,0E0,0E0,0E0,0E0,0E0,0E0,0E0],"parents":[2147483647,0,0,1,1,2,2,3,3,4,4,5,5,6,6,7,7,8,8,9,9,10,10,11,11,12,12,13,13,14,14,15,15,16,16,18,18,21,21,22,22,23,23,25,25,26,26,27,27,28,28,29,29,30,30],"right_children":[2,4,6,8,10,12,14,16,18,20,22,24,26,28,30,32,34,-1,36,-1,-1,38,40,42,-1,44,46,48,50,52,54,-1,-1,-1,-1,-1,-1,-1,-1,-1,-1,-1,-1,-1,-1,-1,-1,-1,-1,-1,-1,-1,-1,-1,-1],"split_conditions":[2.25E0,3.8E0,1.85E0,2.5E1,3E0,2.4E0,2.6E0,1.8E0,1.2E0,8E-1,2.6E0,6E-1,1.4E0,1.2E0,3.7E0,5E0,1.7E1,-3.1527627E-2,1.4E0,-1.906284E-3,5.6326695E-2,9E0,1.8E0,2.4E0,-3.554606E-2,1.75E0,5.75E0,2.6E0,1E0,1.6E0,1.4E0,2.8883502E-2,1.3576989E-2,1.18718045E-2,-9.96998E-3,-2.17674E-2,2.7366921E-2,4.588171E-2,2.6250679E-2,9.188532E-3,-2.5128532E-2,-2.7826382E-2,2.622488E-2,-2.8623527E-2,-4.722795E-3,1.6357653E-2,-1.4495035E-2,1.9158503E-2,-2.4491793E-2,-2.5167814E-2,-2.9488944E-3,-1.8019764E-2,-1.7440141E-3,7.655024E-3,-1.4775142E-2],"split_indices":[2,3,4,0,1,9,2,6,9,6,8,6,6,7,2,1,1,0,7,0,0,0,6,7,0,4,2,10,6,6,5,0,0,0,0,0,0,0,0,0,0,0,0,0,0,0,0,0,0,0,0,0,0,0,0],"split_type":[0,0,0,0,0,0,0,0,0,0,0,0,0,0,0,0,0,0,0,0,0,0,0,0,0,0,0,0,0,0,0,0,0,0,0,0,0,0,0,0,0,0,0,0,0,0,0,0,0,0,0,0,0,0,0],"sum_hessian":[6.4672235E2,3.242633E2,3.22459E2,1.5927747E2,1.6498584E2,7.683369E1,2.4562534E2,1.5114662E2,8.130854E0,1.718004E1,1.478058E2,4.9277107E1,2.755658E1,9.47474E1,1.5087793E2,1.1130964E2,3.983698E1,4.939307E0,3.191547E0,1.3883246E0,1.5791715E1,1.4411041E2,3.695386E0,9.522878E0,3.975423E1,1.883581E1,8.720769E0,3.297595E1,6.1771454E1,1.1842323E2,3.2454693E1,2.5133919E1,8.617572E1,2.412651E1,1.5710468E1,1.3474915E0,1.8440553E0,1.4572487E1,1.2953793E2,1.8612502E0,1.834136E0,7.6512914E0,1.8715862E0,1.4270623E1,4.5651865E0,6.0055914E0,2.715178E0,3.1172468E1,1.8034811E0,1.7206701E1,4.456475E1,9.002267E1,2.8400574E1,1.922823E1,1.3226463E1],"tree_param":{"num_deleted":"0","num_feature":"11","num_nodes":"55","size_leaf_vector":"1"}},{"base_weights":[-1.1125069E-1,-5.2101087E-2,-3.355323E-1,2.0527463E-2,-1.3973866E-1,-3.5300937E-1,2.1994047E-2,6.378161E-1,-2.3822968E-3,-9.2819534E-2,-3.9344078E-1,-3.81052E-1,5.8912817E-2,3.276451E-2,5.341443E-2,1.9811389E-1,-5.264379E-2,-1.1836034E-1,4.7718635E-1,-1.7371565E-1,-6.116345E-1,-3.0844694E-1,-6.043777E-1,3.604428E-1,-3.199714E-1,-2.4795175E-2,3.138353E-2,-9.57124E-3,1.5951589E-2,-5.7936157E-3,8.267756E-3,-7.2578103E-3,1.2862578E-2,-2.0582892E-2,3.5504747E-2,-2.4064578E-2,1.66796E-2,-3.3248197E-2,-1.1638905E-2,-1.6633341E-2,2.2373766E-2,-1.5883228E-2,-3.157575E-2,2.9281313E-2,-3.7801445E-3,2.0859267E-3,-2.4071075E-2],"categories":[],"categories_nodes":[],"categories_segments":[],"categories_sizes":[],"default_left":[0,0,0,0,0,0,0,0,0,0,0,0,0,0,0,0,0,0,0,0,0,0,0,0,0,0,0,0,0,0,0,0,0,0,0,0,0,0,0,0,0,0,0,0,0,0,0],"id":7,"left_children":[1,3,5,7,9,11,-1,13,15,17,19,21,23,25,-1,27,29,31,33,35,37,39,41,43,45,-1,-1,-1,-1,-1,-1,-1,-1,-1,-1,-1,-1,-1,-1,-1,-1,-1,-1,-1,-1,-1,-1],"loss_changes":[7.874012E0,3.0065122E0,1.8351555E0,3.6631372E0,2.5106058E0,1.4291792E0,0E0,2.379249E0,2.5362883E0,2.7045574E0,1.4800844E0,1.6645107E0,1.1010566E0,1.8476074E0,0E0,2.4373684E0,2.7924511E0,1.7976217E0,1.948364E0,2.9509265E0,1.7262506E-1,1.7634344E0,9.188652E-3,5.622091E-1,2.742988E-1,0E0,0E0,0E0,0E0,0E0,0E0,0E0,0E0,0E0,0E0,0E0,0E0,0E0,0E0,0E0,0E0,0E0,0E0,0E0,0E0,0E0,0E0],"parents":[2147483647,0,0,1,1,2,2,3,3,4,4,5,5,7,7,8,8,9,9,10,10,11,11,12,12,13,13,15,15,16,16,17,17,18,18,19,19,20,20,21,21,22,22,23,23,24,24],"right_children":[2,4,6,8,10,12,-1,14,16,18,20,22,24,26,-1,28,30,32,34,36,38,40,42,44,46,-1,-1,-1,-1,-1,-1,-1,-1,-1,-1,-1,-1,-1,-1,-1,-1,-1,-1,-1,-1,-1,-1],"split_conditions":[4.33E0,3.25E0,2.6E1,3E0,2.2E0,3E0,2.1994047E-2,3.25E0,1E0,2.5E1,1.91E0,5.75E0,1.5E1,1E0,5.341443E-2,2E-1,2.2E0,2.6E0,6E-1,1.4E0,2.4E1,3E0,8E-1,3E0,1.2E0,-2.4795175E-2,3.138353E-2,-9.57124E-3,1.5951589E-2,-5.7936157E-3,8.267756E-3,-7.2578103E-3,1.2862578E-2,-2.0582892E-2,3.5504747E-2,-2.4064578E-2,1.66796E-2,-3.3248197E-2,-1.1638905E-2,-1.6633341E-2,2.2373766E-2,-1.5883228E-2,-3.157575E-2,2.9281313E-2,-3.7801445E-3,2.0859267E-3,-2.4071075E-2],"split_indices":[3,4,0,1,10,6,0,3,7,0,2,3,1,5,0,7,7,5,9,9,1,5,10,5,9,0,0,0,0,0,0,0,0,0,0,0,0,0,0,0,0,0,0,0,0,0,0],"split_type":[0,0,0,0,0,0,0,0,0,0,0,0,0,0,0,0,0,0,0,0,0,0,0,0,0,0,0,0,0,0,0,0,0,0,0,0,0,0,0,0,0,0,0,0,0,0,0],"sum_hessian":[5.9385864E2,4.7090067E2,1.2295794E2,2.5791916E2,2.1298152E2,1.2078041E2,2.1775305E0,8.269248E0,2.496499E2,1.8089336E2,3.208817E1,1.1315224E2,7.6281724E0,3.8849132E0,4.384335E0,4.944983E1,2.0020007E2,1.7389388E2,6.9994783E0,1.6882915E1,1.52052555E1,8.718788E1,2.596436E1,4.2748013E0,3.353371E0,2.1450844E0,1.739829E0,1.1575642E1,3.7874187E1,1.5555212E2,4.4647945E1,1.6288718E2,1.10067E1,1.2939477E0,5.70553E0,1.0542424E1,6.340491E0,1.2667006E1,2.5382495E0,8.502363E1,2.1642516E0,3.3436458E0,2.2620714E1,2.59279E0,1.6820116E0,1.2637794E0,2.0895915E0],"tree_param":{"num_deleted":"0","num_feature":"11","num_nodes":"47","size_leaf_vector":"1"}},{"base_weights":[5.4573007E-3,-1.9324268E-1,3.8145512E-1,-6.9527484E-2,-4.4957864E-1,2.8336996E-1,9.4489735E-1,-3.5633624E-1,-3.6989268E-2,-4.8474458E-1,3.9270464E-2,3.7845296E-1,1.5007569E-1,1.0324601E0,-2.582442E-3,1.762833E-1,-4.2880246E-1,-1.4189461E-1,5.7118353E-2,-4.9803784E-1,2.0816011E-2,3.8354897E-1,-2.75636E-2,4.9599507E-1,8.1480615E-2,-9.640347E-3,3.5252345E-1,1.111418E0,6.243191E-1,2.0586418E-2,-2.109688E-2,-5.88621E-3,2.2681996E-2,1.2756695E-2,-2.4564337E-2,4.310044E-3,-1.11969225E-2,-4.7468347E-3,1.0487984E-2,-2.5500748E-2,5.242496E-3,-2.5057483E-2,4.5219827E-2,1.6736057E-2,3.1541757E-2,2.0957986E-2,-1.2117493E-2,1.8136902E-2,-9.405174E-3,-7.2133527E-3,2.7840508E-2,2.4706269E-2,5.8558386E-2,4.3978103E-2,3.5196145E-3],"categories":[],"categories_nodes":[],"categories_segments":[],"categories_sizes":[],"default_left":[0,0,0,0,0,0,0,0,0,0,0,0,0,0,0,0,0,0,0,0,0,0,0,0,0,0,0,0,0,0,0,0,0,0,0,0,0,0,0,0,0,0,0,0,0,0,0,0,0,0,0,0,0,0,0],"id":8,"left_children":[1,3,5,7,9,11,13,15,17,19,21,23,25,27,29,31,33,35,37,39,-1,41,-1,43,45,47,49,51,53,-1,-1,-1,-1,-1,-1,-1,-1,-1,-1,-1,-1,-1,-1,-1,-1,-1,-1,-1,-1,-1,-1,-1,-1,-1,-1],"loss_changes":[4.6675922E1,1.2931803E1,1.1669676E1,2.5707917E0,2.3033466E0,2.2930145E0,2.624199E0,1.1600134E0,2.474134E0,1.6930714E0,2.2125149E0,3.713992E0,2.552897E0,2.383461E-1,8.114797E-1,3.8557816E-1,1.1946907E0,2.2351308E0,3.0925434E0,9.393959E-1,0E0,3.5900135E0,0E0,1.4602528E0,3.5675185E0,3.0620189E0,3.6120176E0,2.6802063E-1,9.2366576E-1,0E0,0E0,0E0,0E0,0E0,0E0,0E0,0E0,0E0,0E0,0E0,0E0,0E0,0E0,0E0,0E0,0E0,0E0,0E0,0E0,0E0,0E0,0E0,0E0,0E0,0E0],"parents":[2147483647,0,0,1,1,2,2,3,3,4,4,5,5,6,6,7,7,8,8,9,9,10,10,11,11,12,12,13,13,14,14,15,15,16,16,17,17,18,18,19,19,21,21,23,23,24,24,25,25,26,26,27,27,28,28],"right_children":[2,4,6,8,10,12,14,16,18,20,22,24,26,28,30,32,34,36,38,40,-1,42,-1,44,46,48,50,52,54,-1,-1,-1,-1,-1,-1,-1,-1,-1,-1,-1,-1,-1,-1,-1,-1,-1,-1,-1,-1,-1,-1,-1,-1,-1,-1],"split_conditions":[2.63E0,5.25E0,6E0,6E-1,1.8E0,1.8E0,2.8E0,3E0,1.3E1,1.72E0,1.53E0,2E1,3.7E0,2E1,5E0,2E0,2E0,8E-1,2.15E0,3.2E0,2.0816011E-2,1.1E1,-2.75636E-2,1E0,3.4E0,1E0,1E0,4E-1,1E0,2.0586418E-2,-2.109688E-2,-5.88621E-3,2.2681996E-2,1.2756695E-2,-2.4564337E-2,4.310044E-3,-1.11969225E-2,-4.7468347E-3,1.0487984E-2,-2.5500748E-2,5.242496E-3,-2.5057483E-2,4.5219827E-2,1.6736057E-2,3.1541757E-2,2.0957986E-2,-1.2117493E-2,1.8136902E-2,-9.405174E-3,-7.2133527E-3,2.7840508E-2,2.4706269E-2,5.8558386E-2,4.3978103E-2,3.5196145E-3],"split_indices":[2,4,2,7,7,9,7,4,1,2,2,1,3,0,3,9,0,8,2,10,0,1,0,6,3,6,5,5,5,0,0,0,0,0,0,0,0,0,0,0,0,0,0,0,0,0,0,0,0,0,0,0,0,0,0],"split_type":[0,0,0,0,0,0,0,0,0,0,0,0,0,0,0,0,0,0,0,0,0,0,0,0,0,0,0,0,0,0,0,0,0,0,0,0,0,0,0,0,0,0,0,0,0,0,0,0,0,0,0,0,0,0,0],"sum_hessian":[6.227684E2,4.0776614E2,2.1500221E2,2.758865E2,1.3187962E2,1.8440376E2,3.0598457E1,2.7096096E1,2.487904E2,1.230372E2,8.842431E0,1.0655529E2,7.7848465E1,2.792778E1,2.6706781E0,3.0735056E0,2.402259E1,1.17405846E2,1.3138457E2,1.2168922E2,1.3479841E0,5.807341E0,3.0350897E0,7.5859726E1,3.0695568E1,4.4049282E1,3.3799183E1,2.1956928E1,5.9708505E0,1.3525674E0,1.3181107E0,1.7713565E0,1.302149E0,1.7528772E0,2.2269712E1,3.1044981E1,8.636086E1,6.6008064E1,6.53765E1,1.1946985E2,2.2193635E0,2.1660173E0,3.641324E0,3.612964E1,3.9730083E1,1.4882371E1,1.5813196E1,1.3936673E1,3.0112608E1,9.934345E0,2.386484E1,2.755804E0,1.9201124E1,3.6849856E0,2.2858648E0],"tree_param":{"num_deleted":"0","num_feature":"11","num_nodes":"55","size_leaf_vector":"1"}},{"base_weights":[9.2903525E-2,4.0783778E-1,-2.2825943E-1,2.2805017E-1,5.780456E-1,-5.0609106E-1,-1.404489E-1,2.60429E-1,-3.4341106E-1,9.885743E-1,5.2388847E-1,-6.3014126E-1,-2.7087736E-1,-9.419E-3,-2.2254774E-1,2.8590786E-1,-2.752106E-1,-3.1132309E-2,1.3211124E-1,-2.1208653E-3,1.0754962E0,5.433809E-1,-1.9480228E-1,-3.0653164E-1,-3.493654E-2,-4.5451975E-1,1.278107E-1,3.123308E-1,-1.8468481E-1,-2.7501377E-1,-2.9318567E-2,2.8167514E-2,1.2326191E-2,4.7439924E-3,-2.9322485E-2,-2.1390425E-2,2.7209897E-2,2.2669498E-2,5.6281727E-2,4.3852944E-2,2.496521E-2,8.833223E-3,-2.5119452E-2,-2.7332222E-2,2.5635554E-2,-2.7926264E-2,-4.552768E-3,2.1992724E-2,-6.949009E-3,1.8561935E-2,-2.416895E-2,-2.4760311E-2,-2.867478E-3,-1.7562194E-2,-1.5403094E-3,7.57109E-3,-1.4310898E-2],"categories":[],"categories_nodes":[],"categories_segments":[],"categories_sizes":[],"default_left":[0,0,0,0,0,0,0,0,0,0,0,0,0,0,0,0,0,0,0,0,0,0,0,0,0,0,0,0,0,0,0,0,0,0,0,0,0,0,0,0,0,0,0,0,0,0,0,0,0,0,0,0,0,0,0,0,0],"id":9,"left_children":[1,3,5,7,9,11,13,15,17,19,21,23,25,27,29,31,33,-1,35,-1,37,39,41,43,-1,45,47,49,51,53,55,-1,-1,-1,-1,-1,-1,-1,-1,-1,-1,-1,-1,-1,-1,-1,-1,-1,-1,-1,-1,-1,-1,-1,-1,-1,-1],"loss_changes":[6.566666E1,9.89587E0,7.7754E0,3.0686636E0,3.2100716E0,2.071804E0,2.641725E0,2.1660204E0,1.2859261E0,1.6958637E0,2.2108955E0,8.8594246E-1,2.1294625E0,5.455263E0,1.5232949E0,1.4618092E0,9.14291E-1,0E0,1.1969854E0,0E0,2.0549774E-2,1.7175789E0,6.2621844E-1,2.3357973E0,0E0,6.896467E-1,8.688575E-1,1.7789845E0,2.446482E0,2.1984615E0,1.5930154E0,0E0,0E0,0E0,0E0,0E0,0E0,0E0,0E0,0E0,0E0,0E0,0E0,0E0,0E0,0E0,0E0,0E0,0E0,0E0,0E0,0E0,0E0,0E0,0E0,0E0,0E0],"parents":[2147483647,0,0,1,1,2,2,3,3,4,4,5,5,6,6,7,7,8,8,9,9,10,10,11,11,12,12,13,13,14,14,15,15,16,16,18,18,20,20,21,21,22,22,23,23,25,25,26,26,27,27,28,28,29,29,30,30],"right_children":[2,4,6,8,10,12,14,16,18,20,22,24,26,28,30,32,34,-1,36,-1,38,40,42,44,-1,46,48,50,52,54,56,-1,-1,-1,-1,-1,-1,-1,-1,-1,-1,-1,-1,-1,-1,-1,-1,-1,-1,-1,-1,-1,-1,-1,-1,-1,-1],"split_conditions":[2.25E0,3.8E0,1.85E0,2.5E1,3E0,2.4E0,2.6E0,2.4E0,1.2E0,8E-1,2.6E0,6E-1,1.4E0,1.2E0,3.7E0,4E-1,2.2E0,-3.1132309E-2,1.4E0,-2.1208653E-3,6E-1,9E0,2.2E0,2.4E0,-3.493654E-2,1.75E0,2.8E0,2.6E0,1E0,1.6E0,1.4E0,2.8167514E-2,1.2326191E-2,4.7439924E-3,-2.9322485E-2,-2.1390425E-2,2.7209897E-2,2.2669498E-2,5.6281727E-2,4.3852944E-2,2.496521E-2,8.833223E-3,-2.5119452E-2,-2.7332222E-2,2.5635554E-2,-2.7926264E-2,-4.552768E-3,2.1992724E-2,-6.949009E-3,1.8561935E-2,-2.416895E-2,-2.4760311E-2,-2.867478E-3,-1.7562194E-2,-1.5403094E-3,7.57109E-3,-1.4310898E-2],"split_indices":[2,3,4,0,1,9,2,6,8,6,8,6,6,7,2,5,5,0,7,0,7,0,5,7,0,4,9,10,6,6,5,0,0,0,0,0,0,0,0,0,0,0,0,0,0,0,0,0,0,0,0,0,0,0,0,0,0],"split_type":[0,0,0,0,0,0,0,0,0,0,0,0,0,0,0,0,0,0,0,0,0,0,0,0,0,0,0,0,0,0,0,0,0,0,0,0,0,0,0,0,0,0,0,0,0,0,0,0,0,0,0,0,0,0,0,0,0],"sum_hessian":[6.473111E2,3.2668854E2,3.2062256E2,1.6001125E2,1.6667728E2,7.585492E1,2.4476762E2,1.5194629E2,8.064955E0,1.741468E1,1.492626E2,4.8563713E1,2.7291204E1,9.471579E1,1.5005183E2,1.4549187E2,6.4544144E0,4.8862615E0,3.1786935E0,1.3938652E0,1.6020815E1,1.4555865E2,3.7039433E0,9.449492E0,3.9114223E1,1.8588837E1,8.702369E0,3.312446E1,6.1591328E1,1.17676735E2,3.2375103E1,1.6432005E1,1.2905986E2,3.2660046E0,3.1884098E0,1.3314476E0,1.8472459E0,1.9439136E0,1.40769005E1,1.4778814E1,1.3077985E2,1.8705537E0,1.8333895E0,7.5650015E0,1.8844912E0,1.4035811E1,4.5530252E0,3.7120256E0,4.990343E0,3.1337906E1,1.7865543E0,1.7071512E1,4.4519817E1,8.9348145E1,2.8328587E1,1.924556E1,1.3129545E1],"tree_param":{"num_deleted":"0","num_feature":"11","num_nodes":"57","size_leaf_vector":"1"}},{"base_weights":[-1.0739338E-1,-4.9903847E-2,-3.271026E-1,-1.393528E-1,1.6639452E-2,-3.444237E-1,2.141037E-2,-1.6765215E-1,4.056624E-1,1.9110446E-1,-2.8858662E-2,-3.7225342E-1,6.0330916E-2,-2.8802672E-1,-8.159356E-2,-2.2132028E-2,6.2216187E-1,-5.9467897E-2,3.274961E-1,5.146417E-1,-5.093939E-2,-3.0012947E-1,-5.956085E-1,3.5760644E-1,-3.15808E-1,-2.0052457E-2,-4.201032E-3,4.525616E-2,-5.0501777E-3,5.077457E-3,4.787735E-2,8.939552E-3,-1.694234E-2,1.3285159E-2,4.9620125E-2,-1.9975541E-2,3.644907E-2,-5.305262E-3,6.6776588E-3,-1.6210621E-2,2.2015182E-2,-1.5604235E-2,-3.113263E-2,3.458566E-2,-1.9846067E-2,-2.396237E-2,2.3906918E-3],"categories":[],"categories_nodes":[],"categories_segments":[],"categories_sizes":[],"default_left":[0,0,0,0,0,0,0,0,0,0,0,0,0,0,0,0,0,0,0,0,0,0,0,0,0,0,0,0,0,0,0,0,0,0,0,0,0,0,0,0,0,0,0,0,0,0,0],"id":10,"left_children":[1,3,5,7,9,11,-1,13,15,17,19,21,23,25,27,-1,29,31,33,35,37,39,41,43,45,-1,-1,-1,-1,-1,-1,-1,-1,-1,-1,-1,-1,-1,-1,-1,-1,-1,-1,-1,-1,-1,-1],"loss_changes":[7.470041E0,2.8055575E0,1.7533016E0,3.1682646E0,2.1562586E0,1.3803015E0,0E0,1.9633355E0,2.1513317E0,1.9393239E0,2.6156847E0,1.6404476E0,1.0763068E0,1.8007431E0,2.2600772E0,0E0,1.3962057E0,1.4348891E0,1.2371705E0,1.9594665E0,2.1337683E0,1.7008944E0,9.250641E-3,1.6059239E0,2.8050604E-1,0E0,0E0,0E0,0E0,0E0,0E0,0E0,0E0,0E0,0E0,0E0,0E0,0E0,0E0,0E0,0E0,0E0,0E0,0E0,0E0,0E0,0E0],"parents":[2147483647,0,0,1,1,2,2,3,3,4,4,5,5,7,7,8,8,9,9,10,10,11,11,12,12,13,13,14,14,16,16,17,17,18,18,19,19,20,20,21,21,22,22,23,23,24,24],"right_children":[2,4,6,8,10,12,-1,14,16,18,20,22,24,26,28,-1,30,32,34,36,38,40,42,44,46,-1,-1,-1,-1,-1,-1,-1,-1,-1,-1,-1,-1,-1,-1,-1,-1,-1,-1,-1,-1,-1,-1],"split_conditions":[4.33E0,2.25E0,2.6E1,2.5E1,1E0,3E0,2.141037E-2,3.9E0,1.9E0,9E0,2E0,5.75E0,3E0,1.6E0,4E0,-2.2132028E-2,3.5E0,5E0,4.75E0,3.2E0,2.2E0,3E0,8E-1,3.4E0,1.3E1,-2.0052457E-2,-4.201032E-3,4.525616E-2,-5.0501777E-3,5.077457E-3,4.787735E-2,8.939552E-3,-1.694234E-2,1.3285159E-2,4.9620125E-2,-1.9975541E-2,3.644907E-2,-5.305262E-3,6.6776588E-3,-1.6210621E-2,2.2015182E-2,-1.5604235E-2,-3.113263E-2,3.458566E-2,-1.9846067E-2,-2.396237E-2,2.3906918E-3],"split_indices":[3,2,0,0,7,6,0,4,2,0,1,3,5,6,4,0,4,0,2,3,7,5,10,6,4,0,0,0,0,0,0,0,0,0,0,0,0,0,0,0,0,0,0,0,0,0,0],"split_type":[0,0,0,0,0,0,0,0,0,0,0,0,0,0,0,0,0,0,0,0,0,0,0,0,0,0,0,0,0,0,0,0,0,0,0,0,0,0,0,0,0,0,0,0,0,0,0],"sum_hessian":[5.916986E2,4.6995612E2,1.2174247E2,2.000075E2,2.699486E2,1.19545006E2,2.1974669E0,1.9079317E2,9.214348E0,5.5175373E1,2.1477324E2,1.1192938E2,7.61562E0,7.8560165E1,1.12233E2,1.6611158E0,7.5532317E0,1.964623E1,3.552914E1,7.514021E0,2.0725922E2,8.638002E1,2.5549366E1,4.281262E0,3.3343582E0,4.9931496E1,2.862867E1,1.2848561E0,1.1094814E2,3.4698403E0,4.083391E0,1.0797762E1,8.848469E0,3.3788612E1,1.7405276E0,1.2630856E0,6.2509356E0,1.5987827E2,4.7380955E1,8.42034E1,2.1766229E0,3.3167896E0,2.2232576E1,3.025024E0,1.2562377E0,2.0810106E0,1.2533479E0],"tree_param":{"num_deleted":"0","num_feature":"11","num_nodes":"47","size_leaf_vector":"1"}},{"base_weights":[5.490458E-3,3.7759495E-1,-1.8076599E-1,2.8109902E-1,8.98414E-1,-6.1677188E-2,-4.3867746E-1,7.1360767E-1,2.4445792E-1,9.805219E-1,-4.1026995E-3,3.7698578E-2,-7.231217E-2,-4.7361436E-1,4.1892536E-2,-2.3719061E-2,9.0533817E-1,2.2136141E-1,4.577906E-2,1.0546294E0,5.958943E-1,2.0081004E-2,-2.0889565E-2,-3.2532424E-1,-4.3531857E-2,-4.8689544E-1,2.0510131E-2,-2.718013E-2,3.7888584E-1,-2.1802837E-2,1.9724755E-2,1.0425567E-2,5.133788E-2,2.4048906E-2,8.842298E-3,2.3547811E-2,5.554978E-2,4.2196497E-2,2.97621E-3,3.8360301E-3,-2.4760908E-2,-3.653947E-3,1.3570311E-2,-2.4941577E-2,5.255217E-3,4.412609E-2,-2.466488E-2],"categories":[],"categories_nodes":[],"categories_segments":[],"categories_sizes":[],"default_left":[0,0,0,0,0,0,0,0,0,0,0,0,0,0,0,0,0,0,0,0,0,0,0,0,0,0,0,0,0,0,0,0,0,0,0,0,0,0,0,0,0,0,0,0,0,0,0],"id":11,"left_children":[1,3,5,7,9,11,13,15,17,19,21,-1,23,25,27,29,31,33,-1,35,37,-1,-1,39,41,43,-1,-1,45,-1,-1,-1,-1,-1,-1,-1,-1,-1,-1,-1,-1,-1,-1,-1,-1,-1,-1],"loss_changes":[4.3258595E1,1.0210991E1,1.2749344E1,2.6323404E0,2.3819866E0,2.5331292E0,2.2232533E0,1.903295E0,2.351821E0,2.1007538E-1,7.84078E-1,0E0,2.0463798E0,1.6367455E0,2.1421247E0,8.137919E-1,6.8190575E-1,1.7714E0,0E0,2.4551392E-1,8.878734E-1,0E0,0E0,2.001515E0,2.3948443E0,9.07917E-1,0E0,0E0,3.4299922E0,0E0,0E0,0E0,0E0,0E0,0E0,0E0,0E0,0E0,0E0,0E0,0E0,0E0,0E0,0E0,0E0,0E0,0E0],"parents":[2147483647,0,0,1,1,2,2,3,3,4,4,5,5,6,6,7,7,8,8,9,9,10,10,12,12,13,13,14,14,15,15,16,16,17,17,19,19,20,20,23,23,24,24,25,25,28,28],"right_children":[2,4,6,8,10,12,14,16,18,20,22,-1,24,26,28,30,32,34,-1,36,38,-1,-1,40,42,44,-1,-1,46,-1,-1,-1,-1,-1,-1,-1,-1,-1,-1,-1,-1,-1,-1,-1,-1,-1,-1],"split_conditions":[2.62E0,6E0,5.25E0,2E0,2.8E0,3E0,1.8E0,1.4E0,2.2E0,2E1,5E0,3.7698578E-2,6E-1,1.72E0,1.1E1,3.25E0,1E1,1E0,4.577906E-2,4E-1,1E0,2.0081004E-2,-2.0889565E-2,9E0,2.2E0,3.2E0,2.0510131E-2,-2.718013E-2,1.53E0,-2.1802837E-2,1.9724755E-2,1.0425567E-2,5.133788E-2,2.4048906E-2,8.842298E-3,2.3547811E-2,5.554978E-2,4.2196497E-2,2.97621E-3,3.8360301E-3,-2.4760908E-2,-3.653947E-3,1.3570311E-2,-2.4941577E-2,5.255217E-3,4.412609E-2,-2.466488E-2],"split_indices":[4,2,4,0,7,3,7,7,10,0,3,0,7,2,1,2,1,9,0,5,5,0,0,1,5,10,0,0,2,0,0,0,0,0,0,0,0,0,0,0,0,0,0,0,0,0,0],"split_type":[0,0,0,0,0,0,0,0,0,0,0,0,0,0,0,0,0,0,0,0,0,0,0,0,0,0,0,0,0,0,0,0,0,0,0,0,0,0,0,0,0,0,0,0,0,0,0],"sum_hessian":[6.221756E2,2.0720088E2,4.1497473E2,1.761112E2,3.1089672E1,2.8473807E2,1.3023665E2,1.2311513E1,1.637997E2,2.841788E1,2.6717944E0,2.7652082E0,2.8197287E2,1.2142375E2,8.812893E0,2.7215803E0,9.589932E0,1.5963571E2,4.163979E0,2.2366499E1,6.0513787E0,1.3636122E0,1.3081821E0,2.7746391E1,2.5422649E2,1.2006858E2,1.3551673E0,2.9954596E0,5.8174334E0,1.3489355E0,1.3726449E0,1.826266E0,7.7636666E0,2.1930582E1,1.3770514E2,2.7936354E0,1.9572865E1,3.7457895E0,2.3055892E0,8.404948E0,1.9341442E1,2.3312312E2,2.110335E1,1.1784984E2,2.218744E0,3.6803746E0,2.1370587E0],"tree_param":{"num_deleted":"0","num_feature":"11","num_nodes":"47","size_leaf_vector":"1"}},{"base_weights":[8.898971E-2,3.8985893E-1,-2.2154865E-1,2.1837223E-1,5.514906E-1,-4.9474403E-1,-1.360191E-1,2.4927248E-1,-3.3432707E-1,9.4756097E-1,4.9924958E-1,-6.191376E-1,-2.6024306E-1,-1.0143953E-2,-2.1530883E-1,2.902172E-1,-7.46055E-2,-3.0678976E-2,1.3623644E-1,-2.291817E-3,1.0309943E0,5.296717E-1,3.6426507E-2,-2.9782665E-1,-6.8778455E-1,-4.4235125E-1,1.3024622E-1,3.0240712E-1,-1.8149383E-1,-3.7760937E-1,-1.5156268E-1,1.1714676E-2,2.9041523E-2,3.862436E-2,-9.64586E-3,2.7113289E-2,-2.1082638E-2,2.1871254E-2,5.3925615E-2,1.5465335E-3,2.7524168E-2,3.6880624E-2,-2.003987E-2,-2.679625E-2,2.5040362E-2,-1.899407E-2,-3.5544667E-2,-2.726755E-2,-4.369164E-3,1.6191391E-2,-1.3765641E-2,1.7974045E-2,-2.3838593E-2,-2.6019678E-2,-3.4274335E-3,-8.266379E-3,-2.88427E-2,-1.1969723E-2,-7.205458E-4],"categories":[],"categories_nodes":[],"categories_segments":[],"categories_sizes":[],"default_left":[0,0,0,0,0,0,0,0,0,0,0,0,0,0,0,0,0,0,0,0,0,0,0,0,0,0,0,0,0,0,0,0,0,0,0,0,0,0,0,0,0,0,0,0,0,0,0,0,0,0,0,0,0,0,0,0,0,0,0],"id":12,"left_children":[1,3,5,7,9,11,13,15,17,19,21,23,25,27,29,31,33,-1,35,-1,37,39,41,43,45,47,49,51,53,55,57,-1,-1,-1,-1,-1,-1,-1,-1,-1,-1,-1,-1,-1,-1,-1,-1,-1,-1,-1,-1,-1,-1,-1,-1,-1,-1,-1,-1],"loss_changes":[6.0684868E1,9.020443E0,7.4053106E0,2.8444233E0,3.0261078E0,2.052042E0,2.4423923E0,2.0596514E0,1.2645601E0,1.5882969E0,2.1141434E0,8.72612E-1,2.050291E0,5.1805925E0,1.4969964E0,2.0845947E0,1.9573712E0,0E0,1.1721871E0,0E0,1.3223648E-2,1.457943E0,3.489946E0,2.2389276E0,1.0894775E-2,6.5934944E-1,8.4947956E-1,1.6951966E0,2.354454E0,1.668097E0,1.3159921E0,0E0,0E0,0E0,0E0,0E0,0E0,0E0,0E0,0E0,0E0,0E0,0E0,0E0,0E0,0E0,0E0,0E0,0E0,0E0,0E0,0E0,0E0,0E0,0E0,0E0,0E0,0E0,0E0],"parents":[2147483647,0,0,1,1,2,2,3,3,4,4,5,5,6,6,7,7,8,8,9,9,10,10,11,11,12,12,13,13,14,14,15,15,16,16,18,18,20,20,21,21,22,22,23,23,24,24,25,25,26,26,27,27,28,28,29,29,30,30],"right_children":[2,4,6,8,10,12,14,16,18,20,22,24,26,28,30,32,34,-1,36,-1,38,40,42,44,46,48,50,52,54,56,58,-1,-1,-1,-1,-1,-1,-1,-1,-1,-1,-1,-1,-1,-1,-1,-1,-1,-1,-1,-1,-1,-1,-1,-1,-1,-1,-1,-1],"split_conditions":[2.25E0,3.8E0,1.85E0,2.5E1,3E0,2.4E0,2.6E0,2.2E0,1.2E0,8E-1,2.2E0,6E-1,1.4E0,1.2E0,8E-1,1.8E0,1.6E0,-3.0678976E-2,1E0,-2.291817E-3,6E-1,6E-1,2E0,2.4E0,9E0,1.75E0,5.75E0,2.6E0,7E0,1.1E1,1.7E1,1.1714676E-2,2.9041523E-2,3.862436E-2,-9.64586E-3,2.7113289E-2,-2.1082638E-2,2.1871254E-2,5.3925615E-2,1.5465335E-3,2.7524168E-2,3.6880624E-2,-2.003987E-2,-2.679625E-2,2.5040362E-2,-1.899407E-2,-3.5544667E-2,-2.726755E-2,-4.369164E-3,1.6191391E-2,-1.3765641E-2,1.7974045E-2,-2.3838593E-2,-2.6019678E-2,-3.4274335E-3,-8.266379E-3,-2.88427E-2,-1.1969723E-2,-7.205458E-4],"split_indices":[2,3,4,0,1,9,2,5,8,6,8,6,6,7,5,8,6,0,5,0,7,10,5,7,1,4,2,10,0,0,1,0,0,0,0,0,0,0,0,0,0,0,0,0,0,0,0,0,0,0,0,0,0,0,0,0,0,0,0],"split_type":[0,0,0,0,0,0,0,0,0,0,0,0,0,0,0,0,0,0,0,0,0,0,0,0,0,0,0,0,0,0,0,0,0,0,0,0,0,0,0,0,0,0,0,0,0,0,0,0,0,0,0,0,0,0,0,0,0,0,0],"sum_hessian":[6.475879E2,3.2878485E2,3.18803E2,1.6066977E2,1.6811508E2,7.487035E1,2.4393266E2,1.526826E2,7.98717E0,1.7593092E1,1.50522E2,4.784841E1,2.7021942E1,9.470817E1,1.492245E2,1.3563902E2,1.7043583E1,4.8217897E0,3.1653805E0,1.3980354E0,1.6195057E1,1.4110266E2,9.419342E0,9.362859E0,3.848555E1,1.8337345E1,8.684597E0,3.3265438E1,6.1442734E1,4.0693474E1,1.0853103E2,1.15264496E2,2.0374525E1,1.411097E0,1.5632485E1,1.8482423E0,1.3171382E0,1.9568326E0,1.4238224E1,5.751722E0,1.3535094E2,3.3537772E0,6.065565E0,7.465964E0,1.896895E0,3.9042292E0,3.458132E1,1.3797451E1,4.5398936E0,6.015029E0,2.6695685E0,3.149697E1,1.7684672E0,1.4456756E1,4.6985977E1,2.0588053E1,2.0105421E1,6.570693E1,4.282409E1],"tree_param":{"num_deleted":"0","num_feature":"11","num_nodes":"59","size_leaf_vector":"1"}},{"base_weights":[-1.0359622E-1,-5.2118164E-2,-3.3790037E-1,-7.0643395E-2,2.3555937E-1,-5.743756E-1,-2.73814E-1,-1.6200602E-1,6.008173E-4,-4.1083208E-1,3.6286908E-1,-6.125575E-1,-6.776494E-3,-2.1689309E-1,-3.1726096E-2,-2.8034693E-1,-8.4270075E-2,4.4803768E-1,-1.5476607E-2,-4.629536E-5,-2.7324347E-2,4.7613334E-2,2.2267306E-1,-2.1664788E-1,-3.2852486E-2,-2.845704E-1,7.335346E-1,-1.961296E-2,-3.994276E-3,4.4308316E-2,-5.1034447E-3,-4.4035013E-3,5.390317E-2,-1.2654129E-3,3.777082E-2,-1.7155445E-3,3.028895E-2,2.771532E-3,-1.9591248E-2,1.1723664E-2,-1.6381016E-2,4.6362977E-2,2.7781264E-3],"categories":[],"categories_nodes":[],"categories_segments":[],"categories_sizes":[],"default_left":[0,0,0,0,0,0,0,0,0,0,0,0,0,0,0,0,0,0,0,0,0,0,0,0,0,0,0,0,0,0,0,0,0,0,0,0,0,0,0,0,0,0,0],"id":13,"left_children":[1,3,5,7,9,11,13,15,17,19,21,23,-1,25,-1,27,29,31,33,-1,-1,-1,35,37,-1,39,41,-1,-1,-1,-1,-1,-1,-1,-1,-1,-1,-1,-1,-1,-1,-1,-1],"loss_changes":[7.104448E0,2.6029305E0,1.4518776E0,2.972823E0,2.5841882E0,2.810707E-1,1.6168528E0,1.8171992E0,1.8600286E0,2.9632407E-1,1.8746417E0,2.0476532E-1,0E0,5.053776E0,0E0,1.7387748E0,2.2011845E0,3.12418E0,1.911128E0,0E0,0E0,0E0,2.157754E0,1.8771268E-1,0E0,1.6641393E0,6.4282155E-1,0E0,0E0,0E0,0E0,0E0,0E0,0E0,0E0,0E0,0E0,0E0,0E0,0E0,0E0,0E0,0E0],"parents":[2147483647,0,0,1,1,2,2,3,3,4,4,5,5,6,6,7,7,8,8,9,9,10,10,11,11,13,13,15,15,16,16,17,17,18,18,22,22,23,23,25,25,26,26],"right_children":[2,4,6,8,10,12,14,16,18,20,22,24,-1,26,-1,28,30,32,34,-1,-1,-1,36,38,-1,40,42,-1,-1,-1,-1,-1,-1,-1,-1,-1,-1,-1,-1,-1,-1,-1,-1],"split_conditions":[4.5E0,2.5E1,1E1,2.25E0,8E-1,2.2E0,2.4E0,3.9E0,2E0,2.2E0,1E0,4E-1,-6.776494E-3,2.4E0,-3.1726096E-2,1.6E0,4E0,3.25E0,2.8E0,-4.629536E-5,-2.7324347E-2,4.7613334E-2,1.6E1,2.2E0,-3.2852486E-2,1E0,6E0,-1.961296E-2,-3.994276E-3,4.4308316E-2,-5.1034447E-3,-4.4035013E-3,5.390317E-2,-1.2654129E-3,3.777082E-2,-1.7155445E-3,3.028895E-2,2.771532E-3,-1.9591248E-2,1.1723664E-2,-1.6381016E-2,4.6362977E-2,2.7781264E-3],"split_indices":[3,0,0,2,9,6,9,4,1,2,9,5,0,8,0,6,4,3,10,0,0,0,1,7,0,6,2,0,0,0,0,0,0,0,0,0,0,0,0,0,0,0,0],"split_type":[0,0,0,0,0,0,0,0,0,0,0,0,0,0,0,0,0,0,0,0,0,0,0,0,0,0,0,0,0,0,0,0,0,0,0,0,0,0,0,0,0,0,0],"sum_hessian":[5.8947766E2,4.8429706E2,1.0518059E2,4.5570593E2,2.8591122E1,2.0729034E1,8.445155E1,1.9910385E2,2.5660208E2,4.3381157E0,2.4253006E1,1.8705702E1,2.0233314E0,7.432424E1,1.0127313E1,7.7902695E1,1.2120116E2,7.968558E0,2.4863353E2,1.3290305E0,3.0090852E0,3.5473235E0,2.0705683E1,2.4827292E0,1.6222973E1,7.003764E1,4.286598E0,4.9378956E1,2.8523739E1,1.3042139E0,1.1989694E2,4.7699103E0,3.1986475E0,2.4645749E2,2.1760466E0,1.2937659E1,7.768023E0,1.2401493E0,1.2425799E0,5.023526E0,6.5014114E1,3.04797E0,1.2386281E0],"tree_param":{"num_deleted":"0","num_feature":"11","num_nodes":"43","size_leaf_vector":"1"}},{"base_weights":[5.549051E-3,3.6159322E-1,-1.7487727E-1,2.6925752E-1,8.5674864E-1,-5.919065E-2,-4.281144E-1,5.707861E-1,2.205482E-1,9.3396735E-1,-4.4278423E-3,3.6493648E-2,-6.960097E-2,-4.6285555E-1,4.4923104E-2,6.96615E-1,-3.4775898E-2,2.0014493E-1,4.87514E-2,1.0041125E0,5.6941724E-1,1.958759E-2,-2.0615E-2,-3.1670606E-1,-4.1701846E-2,-4.7613114E-1,2.0223986E-2,-2.6802067E-2,3.7511992E-1,4.091944E-2,-2.2853825E-3,-2.7969131E-2,3.9734818E-2,-5.6366865E-3,1.1847006E-2,2.2454621E-2,5.2889165E-2,2.2149896E-3,4.078596E-2,3.8132442E-3,-2.4248349E-2,-3.531539E-3,1.3249521E-2,-2.4402179E-2,5.298003E-3,4.3179136E-2,-2.430491E-2],"categories":[],"categories_nodes":[],"categories_segments":[],"categories_sizes":[],"default_left":[0,0,0,0,0,0,0,0,0,0,0,0,0,0,0,0,0,0,0,0,0,0,0,0,0,0,0,0,0,0,0,0,0,0,0,0,0,0,0,0,0,0,0,0,0,0,0],"id":14,"left_children":[1,3,5,7,9,11,13,15,17,19,21,-1,23,25,27,29,31,33,-1,35,37,-1,-1,39,41,43,-1,-1,45,-1,-1,-1,-1,-1,-1,-1,-1,-1,-1,-1,-1,-1,-1,-1,-1,-1,-1],"loss_changes":[4.0044533E1,9.354359E0,1.2095417E1,2.4906921E0,2.1647778E0,2.3931792E0,2.1502457E0,1.8641515E0,2.1909914E0,1.9084167E-1,7.5438446E-1,0E0,1.9333508E0,1.5835304E0,2.0766115E0,1.8489504E0,2.6667018E0,1.7787046E0,0E0,2.309475E-1,8.850386E-1,0E0,0E0,1.9210038E0,2.27992E0,8.7991333E-1,0E0,0E0,3.2896826E0,0E0,0E0,0E0,0E0,0E0,0E0,0E0,0E0,0E0,0E0,0E0,0E0,0E0,0E0,0E0,0E0,0E0,0E0],"parents":[2147483647,0,0,1,1,2,2,3,3,4,4,5,5,6,6,7,7,8,8,9,9,10,10,12,12,13,13,14,14,15,15,16,16,17,17,19,19,20,20,23,23,24,24,25,25,28,28],"right_children":[2,4,6,8,10,12,14,16,18,20,22,-1,24,26,28,30,32,34,-1,36,38,-1,-1,40,42,44,-1,-1,46,-1,-1,-1,-1,-1,-1,-1,-1,-1,-1,-1,-1,-1,-1,-1,-1,-1,-1],"split_conditions":[2.62E0,6E0,5.25E0,1E0,2.8E0,3E0,1.8E0,1.4E0,2.2E0,2E1,5E0,3.6493648E-2,6E-1,1.72E0,1.1E1,4.5E0,3.25E0,8E-1,4.87514E-2,4E-1,2E0,1.958759E-2,-2.0615E-2,9E0,2.2E0,3.2E0,2.0223986E-2,-2.6802067E-2,1.53E0,4.091944E-2,-2.2853825E-3,-2.7969131E-2,3.9734818E-2,-5.6366865E-3,1.1847006E-2,2.2454621E-2,5.2889165E-2,2.2149896E-3,4.078596E-2,3.8132442E-3,-2.4248349E-2,-3.531539E-3,1.3249521E-2,-2.4402179E-2,5.298003E-3,4.3179136E-2,-2.430491E-2],"split_indices":[4,2,4,8,7,3,7,6,10,0,3,0,7,2,1,2,2,7,0,5,9,0,0,1,5,10,0,0,2,0,0,0,0,0,0,0,0,0,0,0,0,0,0,0,0,0,0],"split_type":[0,0,0,0,0,0,0,0,0,0,0,0,0,0,0,0,0,0,0,0,0,0,0,0,0,0,0,0,0,0,0,0,0,0,0,0,0,0,0,0,0,0,0,0,0,0,0],"sum_hessian":[6.2137634E2,2.0864426E2,4.1273212E2,1.771529E2,3.1491367E1,2.8415497E2,1.2857713E2,2.3146898E1,1.54006E2,2.8822433E1,2.6689327E0,2.8001947E0,2.813548E2,1.1980021E2,8.776918E0,1.9040201E1,4.106697E0,1.5118286E2,2.823136E0,2.2700176E1,6.122258E0,1.3739209E0,1.2950116E0,2.74932E1,2.5386159E2,1.1843841E2,1.3617988E0,2.954764E0,5.822155E0,1.626891E1,2.7712927E0,2.7151155E0,1.3915815E0,1.5691371E1,1.3549149E2,2.8275387E0,1.9872637E1,2.3314505E0,3.7908077E0,8.406557E0,1.9086643E1,2.3268329E2,2.1178291E1,1.1622151E2,2.2168975E0,3.7133079E0,2.1088471E0],"tree_param":{"num_deleted":"0","num_feature":"11","num_nodes":"47","size_leaf_vector":"1"}},{"base_weights":[8.523083E-2,3.7306988E-1,-2.1515995E-1,2.0920822E-1,5.2698463E-1,-4.8460466E-1,-1.315704E-1,2.3886096E-1,-3.272303E-1,9.106833E-1,4.7644824E-1,-6.0889995E-1,-2.5188303E-1,-1.06831165E-2,-2.0811248E-1,2.6295525E-1,-2.726593E-1,-3.0257797E-2,1.3580684E-1,-2.325474E-3,9.9064547E-1,4.9449036E-1,-1.9631398E-1,-2.910641E-1,-6.774001E-1,-4.3150058E-1,1.2827374E-1,2.9190996E-1,-1.7771378E-1,-2.601026E-1,-1.784276E-2,1.38677405E-2,-1.737056E-2,4.2006257E-3,-2.8792903E-2,-2.0866191E-2,2.674964E-2,2.1139422E-2,5.1792987E-2,4.0807217E-2,2.2610353E-2,8.160296E-3,-2.475425E-2,-2.6348108E-2,2.442073E-2,-1.8653126E-2,-3.5020508E-2,-2.667806E-2,-4.225824E-3,1.5765067E-2,-1.3408363E-2,1.736064E-2,-2.3535496E-2,-2.4170049E-2,-2.6776462E-3,-1.6752878E-2,-1.1146856E-3,5.8669313E-3,-1.823373E-2],"categories":[],"categories_nodes":[],"categories_segments":[],"categories_sizes":[],"default_left":[0,0,0,0,0,0,0,0,0,0,0,0,0,0,0,0,0,0,0,0,0,0,0,0,0,0,0,0,0,0,0,0,0,0,0,0,0,0,0,0,0,0,0,0,0,0,0,0,0,0,0,0,0,0,0,0,0,0,0],"id":15,"left_children":[1,3,5,7,9,11,13,15,17,19,21,23,25,27,29,31,33,-1,35,-1,37,39,41,43,45,47,49,51,53,55,57,-1,-1,-1,-1,-1,-1,-1,-1,-1,-1,-1,-1,-1,-1,-1,-1,-1,-1,-1,-1,-1,-1,-1,-1,-1,-1,-1,-1],"loss_changes":[5.615993E1,8.25243E0,7.098673E0,2.6591916E0,2.8687592E0,2.0138836E0,2.2562847E0,1.9738626E0,1.230267E0,1.4792566E0,1.949295E0,8.507862E-1,1.9529413E0,4.8879786E0,1.4732523E0,1.3962812E0,8.522798E-1,0E0,1.1424606E0,0E0,6.89888E-3,1.6559944E0,5.8578163E-1,2.1490734E0,1.0734558E-2,6.31377E-1,8.0287504E-1,1.6146936E0,2.3376791E0,2.0827708E0,1.5963664E0,0E0,0E0,0E0,0E0,0E0,0E0,0E0,0E0,0E0,0E0,0E0,0E0,0E0,0E0,0E0,0E0,0E0,0E0,0E0,0E0,0E0,0E0,0E0,0E0,0E0,0E0,0E0,0E0],"parents":[2147483647,0,0,1,1,2,2,3,3,4,4,5,5,6,6,7,7,8,8,9,9,10,10,11,11,12,12,13,13,14,14,15,15,16,16,18,18,20,20,21,21,22,22,23,23,24,24,25,25,26,26,27,27,28,28,29,29,30,30],"right_children":[2,4,6,8,10,12,14,16,18,20,22,24,26,28,30,32,34,-1,36,-1,38,40,42,44,46,48,50,52,54,56,58,-1,-1,-1,-1,-1,-1,-1,-1,-1,-1,-1,-1,-1,-1,-1,-1,-1,-1,-1,-1,-1,-1,-1,-1,-1,-1,-1,-1],"split_conditions":[2.25E0,3.8E0,1.85E0,2.5E1,3E0,2.4E0,2.6E0,2.4E0,1.2E0,8E-1,2.6E0,6E-1,1.4E0,1.2E0,3.7E0,5.75E0,2.2E0,-3.0257797E-2,1.4E0,-2.325474E-3,6E-1,9E0,2.2E0,2.4E0,9E0,1.75E0,5.75E0,2.6E0,1E0,1.6E0,1.4E0,1.38677405E-2,-1.737056E-2,4.2006257E-3,-2.8792903E-2,-2.0866191E-2,2.674964E-2,2.1139422E-2,5.1792987E-2,4.0807217E-2,2.2610353E-2,8.160296E-3,-2.475425E-2,-2.6348108E-2,2.442073E-2,-1.8653126E-2,-3.5020508E-2,-2.667806E-2,-4.225824E-3,1.5765067E-2,-1.3408363E-2,1.736064E-2,-2.3535496E-2,-2.4170049E-2,-2.6776462E-3,-1.6752878E-2,-1.1146856E-3,5.8669313E-3,-1.823373E-2],"split_indices":[2,3,4,0,1,9,2,6,8,6,8,6,6,7,2,4,5,0,7,0,7,0,5,7,1,4,2,10,6,6,10,0,0,0,0,0,0,0,0,0,0,0,0,0,0,0,0,0,0,0,0,0,0,0,0,0,0,0,0],"split_type":[0,0,0,0,0,0,0,0,0,0,0,0,0,0,0,0,0,0,0,0,0,0,0,0,0,0,0,0,0,0,0,0,0,0,0,0,0,0,0,0,0,0,0,0,0,0,0,0,0,0,0,0,0,0,0,0,0,0,0],"sum_hessian":[6.475882E2,3.305797E2,3.170085E2,1.6125871E2,1.6932098E2,7.392365E1,2.4308484E2,1.533374E2,7.9213095E0,1.7724792E1,1.5159619E2,4.71335E1,2.6790157E1,9.468421E1,1.4840063E2,1.4690369E2,6.4337173E0,4.7583246E0,3.1629846E0,1.3987938E0,1.6325998E1,1.4789494E2,3.7012515E0,9.287814E0,3.7845684E1,1.8102144E1,8.688013E0,3.3410336E1,6.1273876E1,1.16264885E2,3.2135742E1,1.4405089E2,2.8528054E0,3.2883437E0,3.1453733E0,1.3067936E0,1.856191E0,1.9674234E0,1.4358576E1,1.5056503E1,1.3283844E2,1.8857799E0,1.8154716E0,7.3787093E0,1.9091048E0,3.8702033E0,3.397548E1,1.3572322E1,4.529823E0,6.042184E0,2.6458297E0,3.1659218E1,1.751118E0,1.6863113E1,4.4410763E1,8.809067E1,2.8174225E1,2.3599337E1,8.536407E0],"tree_param":{"num_deleted":"0","num_feature":"11","num_nodes":"59","size_leaf_vector":"1"}},{"base_weights":[-9.985953E-2,-4.5441516E-2,-3.110845E-1,1.8974574E-2,-1.2436076E-1,-3.2813835E-1,2.0462716E-2,5.857184E-1,-2.554741E-3,-7.8216076E-2,-3.7618402E-1,-3.5594064E-1,7.007179E-2,2.5825942E-2,4.8629336E-2,1.8928532E-1,-5.097641E-2,-1.0178732E-1,4.2739704E-1,-1.5663493E-1,-5.9681964E-1,-2.8386188E-1,-5.81412E-1,3.6134243E-1,-3.0454388E-1,-2.4563799E-2,2.990976E-2,-9.491929E-3,1.5297602E-2,-5.564416E-3,7.7361385E-3,-6.389515E-3,1.27842E-2,-2.0735469E-2,3.2337707E-2,-2.322525E-2,1.6987875E-2,-3.254035E-2,-1.1012337E-2,-1.5395249E-2,2.1842772E-2,-1.5248455E-2,-3.0405775E-2,3.4289714E-2,-1.9374162E-2,-2.3487201E-2,2.7869616E-3],"categories":[],"categories_nodes":[],"categories_segments":[],"categories_sizes":[],"default_left":[0,0,0,0,0,0,0,0,0,0,0,0,0,0,0,0,0,0,0,0,0,0,0,0,0,0,0,0,0,0,0,0,0,0,0,0,0,0,0,0,0,0,0,0,0,0,0],"id":16,"left_children":[1,3,5,7,9,11,-1,13,15,17,19,21,23,25,-1,27,29,31,33,35,37,39,41,43,45,-1,-1,-1,-1,-1,-1,-1,-1,-1,-1,-1,-1,-1,-1,-1,-1,-1,-1,-1,-1,-1,-1],"loss_changes":[6.7475924E0,2.3862152E0,1.6125698E0,3.1623638E0,2.42096E0,1.3325377E0,0E0,2.0293863E0,2.3372328E0,2.1824963E0,1.4756899E0,1.6318274E0,1.0422612E0,1.7450612E0,0E0,2.3010874E0,2.5090766E0,1.6341662E0,1.7804804E0,2.8464243E0,1.7790174E-1,1.6201615E0,5.214691E-3,1.5446041E0,2.8090668E-1,0E0,0E0,0E0,0E0,0E0,0E0,0E0,0E0,0E0,0E0,0E0,0E0,0E0,0E0,0E0,0E0,0E0,0E0,0E0,0E0,0E0,0E0],"parents":[2147483647,0,0,1,1,2,2,3,3,4,4,5,5,7,7,8,8,9,9,10,10,11,11,12,12,13,13,15,15,16,16,17,17,18,18,19,19,20,20,21,21,22,22,23,23,24,24],"right_children":[2,4,6,8,10,12,-1,14,16,18,20,22,24,26,-1,28,30,32,34,36,38,40,42,44,46,-1,-1,-1,-1,-1,-1,-1,-1,-1,-1,-1,-1,-1,-1,-1,-1,-1,-1,-1,-1,-1,-1],"split_conditions":[4.33E0,3.25E0,2.6E1,3E0,2.2E0,3E0,2.0462716E-2,3.25E0,1E0,2.5E1,1.91E0,5.75E0,3E0,1E0,4.8629336E-2,2E-1,2.2E0,2.6E0,6E-1,1.4E0,2.4E1,3E0,8E-1,3.4E0,1.6E0,-2.4563799E-2,2.990976E-2,-9.491929E-3,1.5297602E-2,-5.564416E-3,7.7361385E-3,-6.389515E-3,1.27842E-2,-2.0735469E-2,3.2337707E-2,-2.322525E-2,1.6987875E-2,-3.254035E-2,-1.1012337E-2,-1.5395249E-2,2.1842772E-2,-1.5248455E-2,-3.0405775E-2,3.4289714E-2,-1.9374162E-2,-2.3487201E-2,2.7869616E-3],"split_indices":[3,4,0,1,10,6,0,3,7,0,2,3,5,5,0,7,7,5,9,9,1,5,10,6,9,0,0,0,0,0,0,0,0,0,0,0,0,0,0,0,0,0,0,0,0,0,0],"split_type":[0,0,0,0,0,0,0,0,0,0,0,0,0,0,0,0,0,0,0,0,0,0,0,0,0,0,0,0,0,0,0,0,0,0,0,0,0,0,0,0,0,0,0,0,0,0,0],"sum_hessian":[5.872606E2,4.679242E2,1.1933645E2,2.580534E2,2.098708E2,1.171084E2,2.228045E0,8.4850445E0,2.4956834E2,1.7847687E2,3.1393925E1,1.0956493E2,7.543467E0,3.9030862E0,4.5819583E0,4.9711006E1,1.9985735E2,1.7129016E2,7.1867127E0,1.6592781E1,1.4801145E1,8.47356E1,2.482933E1,4.263752E0,3.279715E0,2.1249757E0,1.7781104E0,1.1550133E1,3.8160873E1,1.548992E2,4.495815E1,1.6027411E2,1.1016056E1,1.3011316E0,5.8855815E0,1.0280746E1,6.3120346E0,1.2308325E1,2.49282E0,8.255437E1,2.1812317E0,3.2812607E0,2.154807E1,3.0335476E0,1.2302046E0,2.0403411E0,1.2393739E0],"tree_param":{"num_deleted":"0","num_feature":"11","num_nodes":"47","size_leaf_vector":"1"}},{"base_weights":[5.573938E-3,3.4622064E-1,-1.6908264E-1,2.579187E-1,8.1752163E-1,-5.6690432E-2,-4.178088E-1,6.715016E-1,2.2276881E-1,8.908735E-1,-7.575167E-3,3.5375506E-2,-6.6882014E-2,-4.523173E-1,4.7109287E-2,-3.284806E-2,8.533249E-1,2.0083125E-1,4.2804703E-2,4.9542633E-1,9.4672734E-1,1.9014785E-2,-2.0447372E-2,-3.100022E-1,-3.9588243E-2,-4.6557257E-1,1.986789E-2,-2.6475905E-2,3.7131476E-1,1.910667E-2,-2.1958176E-2,9.716134E-3,4.8381235E-2,1.4488878E-2,4.4019474E-3,4.458293E-2,-1.0318335E-2,2.3544457E-2,5.105716E-2,3.7539953E-3,-2.3838758E-2,-3.3887909E-3,1.2868457E-2,-2.3872675E-2,5.3028096E-3,4.2235114E-2,-2.3941731E-2],"categories":[],"categories_nodes":[],"categories_segments":[],"categories_sizes":[],"default_left":[0,0,0,0,0,0,0,0,0,0,0,0,0,0,0,0,0,0,0,0,0,0,0,0,0,0,0,0,0,0,0,0,0,0,0,0,0,0,0,0,0,0,0,0,0,0,0],"id":17,"left_children":[1,3,5,7,9,11,13,15,17,19,21,-1,23,25,27,29,31,33,-1,35,37,-1,-1,39,41,43,-1,-1,45,-1,-1,-1,-1,-1,-1,-1,-1,-1,-1,-1,-1,-1,-1,-1,-1,-1,-1],"loss_changes":[3.7030235E1,8.568182E0,1.1478728E1,2.4544039E0,1.9934349E0,2.2635834E0,2.0733585E0,1.7613659E0,2.1425953E0,1.9698715E-1,7.271094E-1,0E0,1.8571793E0,1.5270653E0,2.0181015E0,7.9842174E-1,6.250634E-1,1.6029415E0,0E0,1.8050908E0,4.1588783E-1,0E0,0E0,1.8525715E0,2.1472223E0,8.5061455E-1,0E0,0E0,3.15103E0,0E0,0E0,0E0,0E0,0E0,0E0,0E0,0E0,0E0,0E0,0E0,0E0,0E0,0E0,0E0,0E0,0E0,0E0],"parents":[2147483647,0,0,1,1,2,2,3,3,4,4,5,5,6,6,7,7,8,8,9,9,10,10,12,12,13,13,14,14,15,15,16,16,17,17,19,19,20,20,23,23,24,24,25,25,28,28],"right_children":[2,4,6,8,10,12,14,16,18,20,22,-1,24,26,28,30,32,34,-1,36,38,-1,-1,40,42,44,-1,-1,46,-1,-1,-1,-1,-1,-1,-1,-1,-1,-1,-1,-1,-1,-1,-1,-1,-1,-1],"split_conditions":[2.62E0,6E0,5.25E0,2E0,2.8E0,3E0,1.8E0,1.4E0,2.2E0,6E-1,5E0,3.5375506E-2,6E-1,1.72E0,1.1E1,1.2E0,1E1,1.8E0,4.2804703E-2,1.2E0,4E-1,1.9014785E-2,-2.0447372E-2,9E0,2.2E0,3.2E0,1.986789E-2,-2.6475905E-2,1.53E0,1.910667E-2,-2.1958176E-2,9.716134E-3,4.8381235E-2,1.4488878E-2,4.4019474E-3,4.458293E-2,-1.0318335E-2,2.3544457E-2,5.105716E-2,3.7539953E-3,-2.3838758E-2,-3.3887909E-3,1.2868457E-2,-2.3872675E-2,5.3028096E-3,4.2235114E-2,-2.3941731E-2],"split_indices":[4,2,4,0,7,3,7,7,10,10,3,0,7,2,1,5,1,9,0,6,5,0,0,1,5,10,0,0,2,0,0,0,0,0,0,0,0,0,0,0,0,0,0,0,0,0,0],"split_type":[0,0,0,0,0,0,0,0,0,0,0,0,0,0,0,0,0,0,0,0,0,0,0,0,0,0,0,0,0,0,0,0,0,0,0,0,0,0,0,0,0,0,0,0,0,0,0],"sum_hessian":[6.2041284E2,2.0994942E2,4.1046344E2,1.7812378E2,3.1825638E1,2.835591E2,1.26904305E2,1.2534585E1,1.6558919E2,2.9154093E1,2.6715457E0,2.831379E0,2.8072775E2,1.1816092E2,8.743381E0,2.7399333E0,9.794652E0,1.6131844E2,4.270754E0,4.829699E0,2.4324394E1,1.3853284E0,1.2862172E0,2.7289309E1,2.5343843E2,1.1679099E2,1.3699266E0,2.918787E0,5.8245935E0,1.3849552E0,1.3549782E0,1.84682E0,7.9478316E0,8.931603E1,7.2002396E1,2.9139435E0,1.9157557E0,4.280613E0,2.0043781E1,8.413099E0,1.887621E1,2.3217213E2,2.1266308E1,1.1457439E2,2.2166073E0,3.7454352E0,2.0791583E0],"tree_param":{"num_deleted":"0","num_feature":"11","num_nodes":"47","size_leaf_vector":"1"}},{"base_weights":[8.160121E-2,3.57182E-1,-2.0902152E-1,2.0061354E-1,5.0385195E-1,-4.744666E-1,-1.2749273E-1,2.2902668E-1,-3.196152E-1,8.765613E-1,4.5488772E-1,-5.989451E-1,-2.4301124E-1,-1.1476372E-2,-2.0132367E-1,2.523315E-1,-2.6912436E-1,-2.987357E-2,1.385203E-1,-2.523299E-3,9.5417887E-1,4.8314065E-1,2.2399874E-2,-2.8360063E-1,-6.6751266E-1,-4.2064628E-1,1.2797816E-1,2.8276396E-1,-1.7482212E-1,-2.5261226E-1,-1.4458141E-2,2.1634419E-2,9.917858E-3,3.9635035E-3,-2.8394965E-2,-2.0504216E-2,2.644167E-2,2.0367006E-2,4.9891498E-2,5.046361E-4,2.5145678E-2,3.4739565E-2,-2.0033445E-2,-2.588209E-2,2.389142E-2,-1.8292977E-2,-3.4526035E-2,-2.6084095E-2,-4.109412E-3,2.092935E-2,-6.331008E-3,1.6826482E-2,-2.3267847E-2,2.2478106E-2,-1.1598665E-2,-1.6326595E-2,-9.771899E-4,8.3045885E-3,-1.3635078E-2],"categories":[],"categories_nodes":[],"categories_segments":[],"categories_sizes":[],"default_left":[0,0,0,0,0,0,0,0,0,0,0,0,0,0,0,0,0,0,0,0,0,0,0,0,0,0,0,0,0,0,0,0,0,0,0,0,0,0,0,0,0,0,0,0,0,0,0,0,0,0,0,0,0,0,0,0,0,0,0],"id":18,"left_children":[1,3,5,7,9,11,13,15,17,19,21,23,25,27,29,31,33,-1,35,-1,37,39,41,43,45,47,49,51,53,55,57,-1,-1,-1,-1,-1,-1,-1,-1,-1,-1,-1,-1,-1,-1,-1,-1,-1,-1,-1,-1,-1,-1,-1,-1,-1,-1,-1,-1],"loss_changes":[5.1998196E1,7.5490646E0,6.782014E0,2.4795027E0,2.7282028E0,1.984312E0,2.0812838E0,1.8667164E0,1.2091012E0,1.4021463E0,1.8651333E0,8.3535385E-1,1.8684762E0,4.6471367E0,1.4204588E0,1.3601227E0,8.161986E-1,0E0,1.1059712E0,0E0,9.215355E-3,1.3424301E0,3.2547693E0,2.0654829E0,1.2395859E-2,6.018479E-1,7.6938856E-1,1.5455186E0,2.321353E0,2.0012412E0,1.5867987E0,0E0,0E0,0E0,0E0,0E0,0E0,0E0,0E0,0E0,0E0,0E0,0E0,0E0,0E0,0E0,0E0,0E0,0E0,0E0,0E0,0E0,0E0,0E0,0E0,0E0,0E0,0E0,0E0],"parents":[2147483647,0,0,1,1,2,2,3,3,4,4,5,5,6,6,7,7,8,8,9,9,10,10,11,11,12,12,13,13,14,14,15,15,16,16,18,18,20,20,21,21,22,22,23,23,24,24,25,25,26,26,27,27,28,28,29,29,30,30],"right_children":[2,4,6,8,10,12,14,16,18,20,22,24,26,28,30,32,34,-1,36,-1,38,40,42,44,46,48,50,52,54,56,58,-1,-1,-1,-1,-1,-1,-1,-1,-1,-1,-1,-1,-1,-1,-1,-1,-1,-1,-1,-1,-1,-1,-1,-1,-1,-1,-1,-1],"split_conditions":[2.25E0,3.8E0,1.85E0,2.5E1,3E0,2.4E0,2.6E0,2.4E0,1.2E0,8E-1,2.2E0,6E-1,1.4E0,1.2E0,3.7E0,5E0,2.2E0,-2.987357E-2,1.4E0,-2.523299E-3,6E-1,6E-1,2E0,2.4E0,9E0,1.75E0,2.8E0,2.6E0,2.75E0,1.6E0,1.4E0,2.1634419E-2,9.917858E-3,3.9635035E-3,-2.8394965E-2,-2.0504216E-2,2.644167E-2,2.0367006E-2,4.9891498E-2,5.046361E-4,2.5145678E-2,3.4739565E-2,-2.0033445E-2,-2.588209E-2,2.389142E-2,-1.8292977E-2,-3.4526035E-2,-2.6084095E-2,-4.109412E-3,2.092935E-2,-6.331008E-3,1.6826482E-2,-2.3267847E-2,2.2478106E-2,-1.1598665E-2,-1.6326595E-2,-9.771899E-4,8.3045885E-3,-1.3635078E-2],"split_indices":[2,3,4,0,1,9,2,6,9,6,8,6,6,7,2,1,5,0,7,0,7,10,5,7,1,4,9,10,4,6,5,0,0,0,0,0,0,0,0,0,0,0,0,0,0,0,0,0,0,0,0,0,0,0,0,0,0,0,0],"split_type":[0,0,0,0,0,0,0,0,0,0,0,0,0,0,0,0,0,0,0,0,0,0,0,0,0,0,0,0,0,0,0,0,0,0,0,0,0,0,0,0,0,0,0,0,0,0,0,0,0,0,0,0,0,0,0,0,0,0,0],"sum_hessian":[6.4731445E2,3.3213806E2,3.151764E2,1.6179335E2,1.7034471E2,7.292484E1,2.4225156E2,1.5394514E2,7.8482046E0,1.7817566E1,1.5252715E2,4.638884E1,2.6536009E1,9.466012E1,1.4759145E2,1.4753647E2,6.408684E0,4.6959834E0,3.1522212E0,1.4035896E0,1.6413977E1,1.4306415E2,9.463002E0,9.202471E0,3.7186367E1,1.78536E1,8.682409E0,3.3530106E1,6.1130013E1,1.1553025E2,3.2061188E1,3.236646E1,1.15170006E2,3.297837E0,3.110847E0,1.2893376E0,1.8628834E0,1.9771342E0,1.4436843E1,5.8006034E0,1.3726355E2,3.406585E0,6.0564175E0,7.28381E0,1.9186611E0,3.8330772E0,3.335329E1,1.333232E1,4.5212784E0,3.7536893E0,4.92872E0,3.1795223E1,1.7348807E0,4.5503755E0,5.6579636E1,8.740728E1,2.8122972E1,1.907901E1,1.2982179E1],"tree_param":{"num_deleted":"0","num_feature":"11","num_nodes":"59","size_leaf_vector":"1"}},{"base_weights":[-9.6259385E-2,-4.339603E-2,-3.031329E-1,-3.165053E-1,-2.5148315E-2,-3.2001394E-1,1.9893935E-2,-5.84073E-1,-8.211008E-2,-1.0859776E-1,3.798426E-2,-3.4758195E-1,7.074909E-2,1.5019224E-3,-3.2554455E-2,3.3822E-1,-2.160289E-1,-1.3540632E-1,3.6701956E-1,5.617211E-2,-3.0661745E-2,-2.759695E-1,-5.733437E-1,3.560789E-1,-2.9968345E-1,-9.031332E-3,4.5287665E-2,7.8389805E-4,-2.895734E-2,2.0042614E-3,-9.495261E-3,-2.179569E-2,2.8327152E-2,2.3379738E-2,1.9680809E-3,-1.4994221E-2,2.1516068E-2,-1.4967394E-2,-3.0003687E-2,3.3620115E-2,-1.916149E-2,2.9967325E-3,-2.329888E-2],"categories":[],"categories_nodes":[],"categories_segments":[],"categories_sizes":[],"default_left":[0,0,0,0,0,0,0,0,0,0,0,0,0,0,0,0,0,0,0,0,0,0,0,0,0,0,0,0,0,0,0,0,0,0,0,0,0,0,0,0,0,0,0],"id":19,"left_children":[1,3,5,7,9,11,-1,13,15,17,19,21,23,-1,-1,25,27,29,31,33,-1,35,37,39,41,-1,-1,-1,-1,-1,-1,-1,-1,-1,-1,-1,-1,-1,-1,-1,-1,-1,-1],"loss_changes":[6.3956947E0,2.3240013E0,1.5368023E0,1.7846119E0,2.3206582E0,1.2834635E0,0E0,5.743675E-1,1.0153064E0,2.4677138E0,3.008141E0,1.6093082E0,1.0084937E0,0E0,0E0,1.4693353E0,1.1284988E0,1.731549E0,1.911215E0,1.6771781E0,0E0,1.5635476E0,6.3943863E-3,1.4916668E0,2.824069E-1,0E0,0E0,0E0,0E0,0E0,0E0,0E0,0E0,0E0,0E0,0E0,0E0,0E0,0E0,0E0,0E0,0E0,0E0],"parents":[2147483647,0,0,1,1,2,2,3,3,4,4,5,5,7,7,8,8,9,9,10,10,11,11,12,12,15,15,16,16,17,17,18,18,19,19,21,21,22,22,23,23,24,24],"right_children":[2,4,6,8,10,12,-1,14,16,18,20,22,24,-1,-1,26,28,30,32,34,-1,36,38,40,42,-1,-1,-1,-1,-1,-1,-1,-1,-1,-1,-1,-1,-1,-1,-1,-1,-1,-1],"split_conditions":[4.33E0,2E0,2.6E1,1.2E0,2.25E0,3E0,1.9893935E-2,3E0,1.4E0,2.5E1,2.5E1,5.75E0,3E0,1.5019224E-3,-3.2554455E-2,2.4E0,1.8E0,1.7E0,1.9E0,2E0,-3.0661745E-2,3E0,8E-1,3.4E0,1.22E0,-9.031332E-3,4.5287665E-2,7.8389805E-4,-2.895734E-2,2.0042614E-3,-9.495261E-3,-2.179569E-2,2.8327152E-2,2.3379738E-2,1.9680809E-3,-1.4994221E-2,2.1516068E-2,-1.4967394E-2,-3.0003687E-2,3.3620115E-2,-1.916149E-2,2.9967325E-3,-2.329888E-2],"split_indices":[3,0,0,8,2,6,0,1,7,0,1,3,5,0,0,9,9,2,2,1,0,5,10,6,2,0,0,0,0,0,0,0,0,0,0,0,0,0,0,0,0,0,0],"split_type":[0,0,0,0,0,0,0,0,0,0,0,0,0,0,0,0,0,0,0,0,0,0,0,0,0,0,0,0,0,0,0,0,0,0,0,0,0,0,0,0,0,0,0],"sum_hessian":[5.8503076E2,4.6692502E2,1.1810576E2,2.821987E1,4.3870517E2,1.1585925E2,2.2465086E0,1.2480852E1,1.57390175E1,1.8863924E2,2.5006592E2,1.08327354E2,7.531898E0,1.2822784E0,1.1198573E1,3.4342864E0,1.230473E1,1.7925092E2,9.38832E0,2.4416052E2,5.9053984E0,8.392761E1,2.4399744E1,4.2765703E0,3.2553277E0,2.150241E0,1.2840457E0,8.095675E0,4.2090554E0,4.2538246E1,1.3671268E2,1.6327885E0,7.755532E0,8.531976E0,2.3562854E2,8.173547E1,2.1921406E0,3.253077E0,2.1146667E1,3.0584633E0,1.218107E0,1.2315768E0,2.0237508E0],"tree_param":{"num_deleted":"0","num_feature":"11","num_nodes":"43","size_leaf_vector":"1"}},{"base_weights":[5.6552216E-3,3.3193207E-1,-1.6347113E-1,2.4382311E-1,7.649287E-1,-4.667133E-2,-3.926004E-1,5.569405E-1,1.9354297E-1,8.508599E-1,-9.2833325E-2,3.423963E-2,-5.6985974E-2,2.2558758E-2,-4.0393725E-1,6.831903E-1,-4.25157E-2,2.893313E-1,4.515565E-2,3.8194767E-1,9.293692E-1,-2.1067245E-2,1.0525197E-2,-3.0220553E-1,-2.8359577E-2,-5.643247E-1,-3.499124E-1,3.8366016E-2,1.832689E-3,-2.7905254E-2,3.835748E-2,2.5718806E-2,7.3805465E-3,-2.627713E-2,6.197192E-3,3.4373906E-2,-1.0486066E-2,2.2540167E-2,5.003823E-2,3.7603844E-3,-2.3384433E-2,-6.7029656E-3,3.3078815E-3,-1.2633517E-2,-3.2018825E-2,2.131935E-2,-1.820178E-2],"categories":[],"categories_nodes":[],"categories_segments":[],"categories_sizes":[],"default_left":[0,0,0,0,0,0,0,0,0,0,0,0,0,0,0,0,0,0,0,0,0,0,0,0,0,0,0,0,0,0,0,0,0,0,0,0,0,0,0,0,0,0,0,0,0,0,0],"id":20,"left_children":[1,3,5,7,9,11,13,15,17,19,21,-1,23,-1,25,27,29,31,33,35,37,-1,-1,39,41,43,45,-1,-1,-1,-1,-1,-1,-1,-1,-1,-1,-1,-1,-1,-1,-1,-1,-1,-1,-1,-1],"loss_changes":[3.4281647E1,7.904627E0,1.0932278E1,2.6897058E0,2.6876183E0,2.0924106E0,1.5025272E0,1.8494072E0,2.184929E0,8.329048E-1,4.9967963E-1,0E0,1.8818371E0,0E0,9.8719025E-1,1.0557756E0,2.5679708E0,2.9153543E0,2.8461075E0,1.287627E0,4.693737E-1,0E0,0E0,1.7868922E0,2.4290626E0,6.160145E-1,1.3053493E0,0E0,0E0,0E0,0E0,0E0,0E0,0E0,0E0,0E0,0E0,0E0,0E0,0E0,0E0,0E0,0E0,0E0,0E0,0E0,0E0],"parents":[2147483647,0,0,1,1,2,2,3,3,4,4,5,5,6,6,7,7,8,8,9,9,10,10,12,12,14,14,15,15,16,16,17,17,18,18,19,19,20,20,23,23,24,24,25,25,26,26],"right_children":[2,4,6,8,10,12,14,16,18,20,22,-1,24,-1,26,28,30,32,34,36,38,-1,-1,40,42,44,46,-1,-1,-1,-1,-1,-1,-1,-1,-1,-1,-1,-1,-1,-1,-1,-1,-1,-1,-1,-1],"split_conditions":[2.62E0,5.75E0,4.8E0,1E0,2.8E0,3E0,3.5E0,1.4E0,1.5E1,6E-1,3E0,3.423963E-2,6E-1,2.2558758E-2,1.1E1,4.5E0,3.25E0,1.6E0,8E-1,1.2E0,4E-1,-2.1067245E-2,1.0525197E-2,9E0,1.3E1,1.2E0,3.6E0,3.8366016E-2,1.832689E-3,-2.7905254E-2,3.835748E-2,2.5718806E-2,7.3805465E-3,-2.627713E-2,6.197192E-3,3.4373906E-2,-1.0486066E-2,2.2540167E-2,5.003823E-2,3.7603844E-3,-2.3384433E-2,-6.7029656E-3,3.3078815E-3,-1.2633517E-2,-3.2018825E-2,2.131935E-2,-1.820178E-2],"split_indices":[4,2,4,8,7,3,3,6,1,10,7,0,7,0,0,2,2,9,7,6,5,0,0,1,1,10,3,0,0,0,0,0,0,0,0,0,0,0,0,0,0,0,0,0,0,0,0],"split_type":[0,0,0,0,0,0,0,0,0,0,0,0,0,0,0,0,0,0,0,0,0,0,0,0,0,0,0,0,0,0,0,0,0,0,0,0,0,0,0,0,0,0,0,0,0,0,0],"sum_hessian":[6.1926337E2,2.1108252E2,4.0818088E2,1.7669133E2,3.4391186E1,2.7115958E2,1.3702129E2,2.3053009E1,1.5363832E2,3.1266893E1,3.1242926E0,2.8612816E0,2.682983E2,1.3022285E0,1.3571906E2,1.8927135E1,4.1258736E0,9.278991E1,6.084841E1,5.3253303E0,2.5941565E1,1.3131412E0,1.8111513E0,2.704745E1,2.4125085E2,3.1816746E1,1.0390231E2,1.658253E1,2.344606E0,2.710526E0,1.4153477E0,3.483854E1,5.795137E1,6.6935678E0,5.4154842E1,3.4050665E0,1.9202635E0,4.317222E0,2.1624342E1,8.410761E0,1.8636688E1,1.1369075E2,1.27560104E2,7.0889874E0,2.4727758E1,1.3349397E0,1.02567375E2],"tree_param":{"num_deleted":"0","num_feature":"11","num_nodes":"47","size_leaf_vector":"1"}},{"base_weights":[7.824489E-2,3.419675E-1,-2.0271526E-1,1.9197676E-1,4.8223212E-1,-4.647673E-1,-1.23027354E-1,2.1906017E-1,-3.1068096E-1,8.4633327E-1,4.3458992E-1,-5.894269E-1,-2.3463574E-1,-1.1516366E-2,-1.9434893E-1,2.8288817E-1,3.6009982E-2,-2.9489694E-2,1.447445E-1,-2.6877108E-3,9.219649E-1,7.6117283E-1,3.932728E-1,-2.755997E-1,-6.5824705E-1,-4.100707E-1,1.267031E-1,2.7318737E-1,-1.7060566E-1,-3.526538E-1,-1.328597E-1,2.4361411E-2,1.0389861E-2,-1.9514336E-3,3.104954E-2,2.6503379E-2,-2.018406E-2,1.9750131E-2,4.8199017E-2,4.2269047E-2,4.8408946E-3,1.5930219E-2,3.1663086E-2,-2.5395745E-2,2.3383211E-2,-1.7910682E-2,-3.4067955E-2,-2.5502115E-2,-4.017114E-3,1.524757E-2,-1.289501E-2,1.628329E-2,-2.308302E-2,-2.364749E-2,-2.4422205E-3,-7.034818E-3,-2.7695706E-2,2.7255462E-3,-9.825322E-3],"categories":[],"categories_nodes":[],"categories_segments":[],"categories_sizes":[],"default_left":[0,0,0,0,0,0,0,0,0,0,0,0,0,0,0,0,0,0,0,0,0,0,0,0,0,0,0,0,0,0,0,0,0,0,0,0,0,0,0,0,0,0,0,0,0,0,0,0,0,0,0,0,0,0,0,0,0,0,0],"id":21,"left_children":[1,3,5,7,9,11,13,15,17,19,21,23,25,27,29,31,33,-1,35,-1,37,39,41,43,45,47,49,51,53,55,57,-1,-1,-1,-1,-1,-1,-1,-1,-1,-1,-1,-1,-1,-1,-1,-1,-1,-1,-1,-1,-1,-1,-1,-1,-1,-1,-1,-1],"loss_changes":[4.8065975E1,6.9448853E0,6.50535E0,2.2913074E0,2.6192017E0,1.9536457E0,1.9251349E0,1.8071809E0,1.1992617E0,1.3340712E0,1.7830582E0,8.2585144E-1,1.7814459E0,4.376575E0,1.3912797E0,1.6661797E0,1.839828E0,0E0,1.0873033E0,0E0,5.832672E-3,8.279581E-1,2.2902107E0,1.9829259E0,1.6170502E-2,5.722048E-1,7.42314E-1,1.4867384E0,2.2573004E0,1.6594572E0,1.2988462E0,0E0,0E0,0E0,0E0,0E0,0E0,0E0,0E0,0E0,0E0,0E0,0E0,0E0,0E0,0E0,0E0,0E0,0E0,0E0,0E0,0E0,0E0,0E0,0E0,0E0,0E0,0E0,0E0],"parents":[2147483647,0,0,1,1,2,2,3,3,4,4,5,5,6,6,7,7,8,8,9,9,10,10,11,11,12,12,13,13,14,14,15,15,16,16,18,18,20,20,21,21,22,22,23,23,24,24,25,25,26,26,27,27,28,28,29,29,30,30],"right_children":[2,4,6,8,10,12,14,16,18,20,22,24,26,28,30,32,34,-1,36,-1,38,40,42,44,46,48,50,52,54,56,58,-1,-1,-1,-1,-1,-1,-1,-1,-1,-1,-1,-1,-1,-1,-1,-1,-1,-1,-1,-1,-1,-1,-1,-1,-1,-1,-1,-1],"split_conditions":[2.25E0,3.8E0,1.85E0,2.5E1,3E0,2.4E0,2.6E0,1.8E0,1.2E0,8E-1,9E0,6E-1,1.4E0,1.2E0,8E-1,1E0,2.2E0,-2.9489694E-2,1E0,-2.6877108E-3,6E-1,1.75E0,5.5E0,2.4E0,9E0,1.75E0,5.75E0,2.6E0,1E0,1.1E1,1E0,2.4361411E-2,1.0389861E-2,-1.9514336E-3,3.104954E-2,2.6503379E-2,-2.018406E-2,1.9750131E-2,4.8199017E-2,4.2269047E-2,4.8408946E-3,1.5930219E-2,3.1663086E-2,-2.5395745E-2,2.3383211E-2,-1.7910682E-2,-3.4067955E-2,-2.5502115E-2,-4.017114E-3,1.524757E-2,-1.289501E-2,1.628329E-2,-2.308302E-2,-2.364749E-2,-2.4422205E-3,-7.034818E-3,-2.7695706E-2,2.7255462E-3,-9.825322E-3],"split_indices":[2,3,4,0,1,9,2,6,8,6,0,6,6,7,5,7,9,0,5,0,7,2,3,7,1,4,2,10,6,0,10,0,0,0,0,0,0,0,0,0,0,0,0,0,0,0,0,0,0,0,0,0,0,0,0,0,0,0,0],"split_type":[0,0,0,0,0,0,0,0,0,0,0,0,0,0,0,0,0,0,0,0,0,0,0,0,0,0,0,0,0,0,0,0,0,0,0,0,0,0,0,0,0,0,0,0,0,0,0,0,0,0,0,0,0,0,0,0,0,0,0],"sum_hessian":[6.4676715E2,3.3350568E2,3.1326147E2,1.6230981E2,1.7119586E2,7.1920395E1,2.4134106E2,1.5454695E2,7.762862E0,1.7869036E1,1.5332683E2,4.563772E1,2.6282679E1,9.459838E1,1.4674268E2,1.14185905E2,4.0361046E1,4.630169E0,3.132693E0,1.4075167E0,1.6461517E1,1.5262764E1,1.3806406E2,9.108164E0,3.6529556E1,1.7601868E1,8.680812E0,3.3654182E1,6.09442E1,3.972777E1,1.0701491E2,2.9210047E1,8.497585E1,3.659951E1,3.7615352E0,1.859609E0,1.273084E0,1.9836565E0,1.4477861E1,1.3303977E1,1.9587862E0,1.07076614E2,3.0987446E1,7.1804714E0,1.9276922E0,3.7927144E0,3.2736843E1,1.3087087E1,4.51478E0,6.0732183E0,2.607593E0,3.193071E1,1.7234747E0,1.6669096E1,4.4275105E1,2.0177208E1,1.9550562E1,2.7170565E1,7.9844345E1],"tree_param":{"num_deleted":"0","num_feature":"11","num_nodes":"59","size_leaf_vector":"1"}},{"base_weights":[-9.278546E-2,-4.561233E-2,-3.1320167E-1,-6.2720515E-2,2.1537127E-1,-5.525471E-1,-2.4924964E-1,-1.4439815E-1,-1.04828534E-4,-4.1562092E-1,3.3903897E-1,-5.91947E-1,-5.677695E-3,-1.9266568E-1,-3.0741736E-2,5.302298E-1,-1.5697698E-1,-9.203782E-3,3.598347E-2,-8.657111E-4,-2.7273277E-2,4.4680994E-2,2.0588332E-1,-2.0210613E-1,-3.1861324E-2,-3.0386317E-1,3.6149573E-1,-1.8563908E-2,5.367404E-2,-1.35145215E-2,-4.1226586E-3,2.0407107E-2,-1.2287198E-3,-2.0978872E-3,2.8598038E-2,3.3067602E-3,-1.9012405E-2,-1.7387195E-2,3.614359E-3,5.89976E-2,-8.8529225E-4],"categories":[],"categories_nodes":[],"categories_segments":[],"categories_sizes":[],"default_left":[0,0,0,0,0,0,0,0,0,0,0,0,0,0,0,0,0,0,0,0,0,0,0,0,0,0,0,0,0,0,0,0,0,0,0,0,0,0,0,0,0],"id":22,"left_children":[1,3,5,7,9,11,13,15,17,19,21,23,-1,25,-1,27,29,31,-1,-1,-1,-1,33,35,-1,37,39,-1,-1,-1,-1,-1,-1,-1,-1,-1,-1,-1,-1,-1,-1],"loss_changes":[6.056379E0,2.1660202E0,1.4351149E0,2.317821E0,2.472837E0,2.9331875E-1,1.5966501E0,1.7521553E0,1.6933004E0,2.6705885E-1,1.7018375E0,2.0466614E-1,0E0,4.6238737E0,0E0,2.2734385E0,1.6145949E0,1.6478215E0,0E0,0E0,0E0,0E0,2.0102654E0,1.8906367E-1,0E0,1.0411482E0,3.9622278E0,0E0,0E0,0E0,0E0,0E0,0E0,0E0,0E0,0E0,0E0,0E0,0E0,0E0,0E0],"parents":[2147483647,0,0,1,1,2,2,3,3,4,4,5,5,6,6,7,7,8,8,9,9,10,10,11,11,13,13,15,15,16,16,17,17,22,22,23,23,25,25,26,26],"right_children":[2,4,6,8,10,12,14,16,18,20,22,24,-1,26,-1,28,30,32,-1,-1,-1,-1,34,36,-1,38,40,-1,-1,-1,-1,-1,-1,-1,-1,-1,-1,-1,-1,-1,-1],"split_conditions":[4.5E0,2.5E1,1E1,2.25E0,8E-1,2.2E0,2.4E0,1.5E0,2.8E0,6E-1,1E0,4E-1,-5.677695E-3,2E0,-3.0741736E-2,1E0,3.9E0,2E0,3.598347E-2,-8.657111E-4,-2.7273277E-2,4.4680994E-2,1.6E1,2.2E0,-3.1861324E-2,3E0,1.6E0,-1.8563908E-2,5.367404E-2,-1.35145215E-2,-4.1226586E-3,2.0407107E-2,-1.2287198E-3,-2.0978872E-3,2.8598038E-2,3.3067602E-3,-1.9012405E-2,-1.7387195E-2,3.614359E-3,5.89976E-2,-8.8529225E-4],"split_indices":[3,0,0,2,9,6,9,2,10,5,9,5,0,8,0,8,4,1,0,0,0,0,1,7,0,6,5,0,0,0,0,0,0,0,0,0,0,0,0,0,0],"split_type":[0,0,0,0,0,0,0,0,0,0,0,0,0,0,0,0,0,0,0,0,0,0,0,0,0,0,0,0,0,0,0,0,0,0,0,0,0,0,0,0,0],"sum_hessian":[5.828457E2,4.8109042E2,1.0175528E2,4.5220673E2,2.8883698E1,1.9844746E1,8.191053E1,1.9566705E2,2.5653967E2,4.346365E0,2.4537333E1,1.789063E1,1.9541156E0,7.225428E1,9.656253E0,2.8282752E0,1.9283879E2,2.5431203E2,2.227647E0,1.3471723E0,2.9991927E0,3.645029E0,2.0892303E1,2.4302764E0,1.5460354E1,6.0555035E1,1.1699244E1,1.1825061E0,1.6457694E0,7.5465935E1,1.1737285E2,8.125784E0,2.4618623E2,1.2985959E1,7.9063454E0,1.2207917E0,1.2094848E0,5.429647E1,6.2585626E0,3.0356092E0,8.663634E0],"tree_param":{"num_deleted":"0","num_feature":"11","num_nodes":"41","size_leaf_vector":"1"}},{"base_weights":[5.634307E-3,3.1829375E-1,-1.5806814E-1,2.3703495E-1,7.50358E-1,-5.1893465E-2,-3.981918E-1,6.2912196E-1,2.0357038E-1,8.168834E-1,-9.617562E-3,3.321975E-2,-6.163433E-2,-4.32969E-1,6.261024E-2,7.6669306E-1,-8.20733E-3,1.8249683E-1,4.0555477E-2,8.8110334E-1,4.9121505E-1,-2.0161545E-2,1.8378092E-2,-2.9541337E-1,-3.5738364E-2,-4.4627973E-1,1.9560931E-2,-2.595951E-2,3.8514572E-1,-1.6264915E-3,4.372194E-2,1.0114379E-2,-1.3182026E-2,1.9501612E-2,4.648107E-2,3.6722854E-2,-1.7634364E-4,3.7481745E-3,-2.2984779E-2,9.128518E-4,-9.252638E-3,-2.2915274E-2,5.8373045E-3,4.220131E-2,-2.3222005E-2],"categories":[],"categories_nodes":[],"categories_segments":[],"categories_sizes":[],"default_left":[0,0,0,0,0,0,0,0,0,0,0,0,0,0,0,0,0,0,0,0,0,0,0,0,0,0,0,0,0,0,0,0,0,0,0,0,0,0,0,0,0,0,0,0,0],"id":23,"left_children":[1,3,5,7,9,11,13,15,17,19,21,-1,23,25,27,29,-1,31,-1,33,35,-1,-1,37,39,41,-1,-1,43,-1,-1,-1,-1,-1,-1,-1,-1,-1,-1,-1,-1,-1,-1,-1,-1],"loss_changes":[3.17353E1,7.3028126E0,1.0355359E1,2.2442455E0,1.6897621E0,2.0179696E0,2.0243587E0,1.6252651E0,2.0036893E0,2.0719147E-1,6.924836E-1,0E0,1.6873592E0,1.4472942E0,2.0050888E0,1.0519252E0,0E0,1.4988737E0,0E0,2.1640396E-1,8.811227E-1,0E0,0E0,1.727911E0,2.0482442E0,8.2966995E-1,0E0,0E0,3.028541E0,0E0,0E0,0E0,0E0,0E0,0E0,0E0,0E0,0E0,0E0,0E0,0E0,0E0,0E0,0E0,0E0],"parents":[2147483647,0,0,1,1,2,2,3,3,4,4,5,5,6,6,7,7,8,8,9,9,10,10,12,12,13,13,14,14,15,15,17,17,19,19,20,20,23,23,24,24,25,25,28,28],"right_children":[2,4,6,8,10,12,14,16,18,20,22,-1,24,26,28,30,-1,32,-1,34,36,-1,-1,38,40,42,-1,-1,44,-1,-1,-1,-1,-1,-1,-1,-1,-1,-1,-1,-1,-1,-1,-1,-1],"split_conditions":[2.62E0,6E0,5.25E0,2E0,2.8E0,3E0,1.8E0,1.6E0,2.2E0,2E1,2E0,3.321975E-2,6E-1,1.72E0,1.1E1,1E0,-8.20733E-3,2.2E0,4.0555477E-2,4E-1,1E0,-2.0161545E-2,1.8378092E-2,9E0,1.6E0,3.2E0,1.9560931E-2,-2.595951E-2,1.53E0,-1.6264915E-3,4.372194E-2,1.0114379E-2,-1.3182026E-2,1.9501612E-2,4.648107E-2,3.6722854E-2,-1.7634364E-4,3.7481745E-3,-2.2984779E-2,9.128518E-4,-9.252638E-3,-2.2915274E-2,5.8373045E-3,4.220131E-2,-2.3222005E-2],"split_indices":[4,2,4,0,7,3,7,6,10,0,0,0,7,2,1,7,0,6,0,5,5,0,0,1,8,10,0,0,2,0,0,0,0,0,0,0,0,0,0,0,0,0,0,0,0],"split_type":[0,0,0,0,0,0,0,0,0,0,0,0,0,0,0,0,0,0,0,0,0,0,0,0,0,0,0,0,0,0,0,0,0,0,0,0,0,0,0,0,0,0,0,0,0],"sum_hessian":[6.1805164E2,2.1206981E2,4.059818E2,1.7980272E2,3.226708E1,2.823515E2,1.236303E2,1.2739613E1,1.6706311E2,2.9601036E1,2.6660445E0,2.8865142E0,2.79465E2,1.1501073E2,8.619571E0,1.0885344E1,1.8542693E0,1.627193E2,4.3438168E0,2.330074E1,6.300297E0,1.2708027E0,1.3952417E0,2.6831612E1,2.5263339E2,1.1363404E2,1.3766844E0,2.8567512E0,5.7628193E0,1.376084E0,9.509259E0,1.56331E2,6.3883014E0,2.907872E0,2.0392866E1,3.898873E0,2.4014237E0,8.411481E0,1.842013E1,1.8618315E2,6.645024E1,1.1143978E2,2.1942592E0,3.7460415E0,2.016778E0],"tree_param":{"num_deleted":"0","num_feature":"11","num_nodes":"45","size_leaf_vector":"1"}},{"base_weights":[7.496771E-2,3.27744E-1,-1.968575E-1,1.8397562E-1,4.620468E-1,-4.5534754E-1,-1.19093016E-1,2.0998617E-1,-3.0424228E-1,8.176767E-1,4.157237E-1,-5.8022135E-1,-2.2665524E-1,-1.2033342E-2,-1.8788175E-1,2.3234384E-1,-2.7009502E-1,-2.9125411E-2,1.446184E-1,-2.8443912E-3,8.915331E-1,4.3256333E-1,-2.1047555E-1,-2.688054E-1,-6.4913726E-1,-3.9984494E-1,1.2519626E-1,6.3860214E-1,-7.810498E-2,-2.3861048E-1,-4.345855E-3,1.232228E-2,-1.8064078E-2,3.64825E-3,-2.8250298E-2,-2.0077966E-2,2.6336363E-2,1.9104969E-2,4.6614904E-2,3.670611E-2,1.9656273E-2,7.0704767E-3,-2.4924869E-2,-2.4931991E-2,2.2720372E-2,-3.3690352E-2,-1.799891E-2,-2.4963079E-2,-3.8452856E-3,2.0045105E-2,-6.005041E-3,6.0260887E-3,4.541049E-2,9.436324E-3,-1.1167394E-2,-1.5563455E-2,-5.9520145E-4,8.731468E-3,-1.3098896E-2],"categories":[],"categories_nodes":[],"categories_segments":[],"categories_sizes":[],"default_left":[0,0,0,0,0,0,0,0,0,0,0,0,0,0,0,0,0,0,0,0,0,0,0,0,0,0,0,0,0,0,0,0,0,0,0,0,0,0,0,0,0,0,0,0,0,0,0,0,0,0,0,0,0,0,0,0,0,0,0],"id":24,"left_children":[1,3,5,7,9,11,13,15,17,19,21,23,25,27,29,31,33,-1,35,-1,37,39,41,43,45,47,49,51,53,55,57,-1,-1,-1,-1,-1,-1,-1,-1,-1,-1,-1,-1,-1,-1,-1,-1,-1,-1,-1,-1,-1,-1,-1,-1,-1,-1,-1,-1],"loss_changes":[4.4522663E1,6.395664E0,6.225294E0,2.143546E0,2.5079155E0,1.9215555E0,1.7762744E0,1.737998E0,1.1698973E0,1.2707434E0,1.7253265E0,8.097286E-1,1.6973178E0,4.1569767E0,1.3672566E0,1.3419361E0,7.906631E-1,0E0,1.0729145E0,0E0,6.7214966E-3,1.5101948E0,5.5001116E-1,1.8915267E0,2.026558E-2,5.5086184E-1,7.026938E-1,1.1359892E0,3.4380069E0,1.8925638E0,1.5601003E0,0E0,0E0,0E0,0E0,0E0,0E0,0E0,0E0,0E0,0E0,0E0,0E0,0E0,0E0,0E0,0E0,0E0,0E0,0E0,0E0,0E0,0E0,0E0,0E0,0E0,0E0,0E0,0E0],"parents":[2147483647,0,0,1,1,2,2,3,3,4,4,5,5,6,6,7,7,8,8,9,9,10,10,11,11,12,12,13,13,14,14,15,15,16,16,18,18,20,20,21,21,22,22,23,23,24,24,25,25,26,26,27,27,28,28,29,29,30,30],"right_children":[2,4,6,8,10,12,14,16,18,20,22,24,26,28,30,32,34,-1,36,-1,38,40,42,44,46,48,50,52,54,56,58,-1,-1,-1,-1,-1,-1,-1,-1,-1,-1,-1,-1,-1,-1,-1,-1,-1,-1,-1,-1,-1,-1,-1,-1,-1,-1,-1,-1],"split_conditions":[2.25E0,3.8E0,1.85E0,2.5E1,3E0,2.4E0,2.6E0,2.4E0,1.2E0,8E-1,2.6E0,6E-1,1.4E0,2.75E0,3.7E0,5.75E0,2.2E0,-2.9125411E-2,1.4E0,-2.8443912E-3,6E-1,9E0,2.2E0,2.4E0,1.8E0,1.75E0,2.8E0,1.4E0,1.2E0,1.6E0,1.4E0,1.232228E-2,-1.8064078E-2,3.64825E-3,-2.8250298E-2,-2.0077966E-2,2.6336363E-2,1.9104969E-2,4.6614904E-2,3.670611E-2,1.9656273E-2,7.0704767E-3,-2.4924869E-2,-2.4931991E-2,2.2720372E-2,-3.3690352E-2,-1.799891E-2,-2.4963079E-2,-3.8452856E-3,2.0045105E-2,-6.005041E-3,6.0260887E-3,4.541049E-2,9.436324E-3,-1.1167394E-2,-1.5563455E-2,-5.9520145E-4,8.731468E-3,-1.3098896E-2],"split_indices":[2,3,4,0,1,9,2,6,8,6,8,6,6,4,2,4,5,0,7,0,7,0,5,7,6,4,9,9,7,6,5,0,0,0,0,0,0,0,0,0,0,0,0,0,0,0,0,0,0,0,0,0,0,0,0,0,0,0,0],"split_type":[0,0,0,0,0,0,0,0,0,0,0,0,0,0,0,0,0,0,0,0,0,0,0,0,0,0,0,0,0,0,0,0,0,0,0,0,0,0,0,0,0,0,0,0,0,0,0,0,0,0,0,0,0,0,0,0,0,0,0],"sum_hessian":[6.4603125E2,3.3463812E2,3.1139313E2,1.6276808E2,1.7187004E2,7.089196E1,2.4050116E2,1.5507607E2,7.692017E0,1.788816E1,1.5398187E2,4.4859833E1,2.6032131E1,9.453935E1,1.459618E2,1.486685E2,6.407548E0,4.5645375E0,3.1274796E0,1.4108953E0,1.6477266E1,1.5025058E2,3.731289E0,9.016539E0,3.5843292E1,1.7353783E1,8.678349E0,7.9165382E0,8.662282E1,1.1411949E2,3.1842321E1,1.4579007E2,2.8784432E0,3.3098714E0,3.0976768E0,1.2664053E0,1.8610741E0,1.9893914E0,1.4487875E1,1.5339988E1,1.349106E2,1.9085666E0,1.8227224E0,7.07777E0,1.9387681E0,3.1800028E1,4.0432653E0,1.2851473E1,4.5023103E0,3.7872503E0,4.891098E0,3.2049348E0,4.711603E0,3.042622E1,5.6196594E1,8.6139175E1,2.7980316E1,1.8979542E1,1.2862781E1],"tree_param":{"num_deleted":"0","num_feature":"11","num_nodes":"59","size_leaf_vector":"1"}},{"base_weights":[-8.9315645E-2,-3.946195E-2,-2.8772074E-1,-3.0731684E-1,-2.1701433E-2,-3.0427268E-1,1.8918028E-2,-5.74038E-1,-7.6711565E-2,2.0280173E-1,-4.3021645E-2,-3.3157662E-1,7.519986E-2,1.5014069E-3,-3.2059703E-2,3.3114415E-1,-2.0844622E-1,2.7762488E-1,-3.691953E-1,-5.877777E-2,3.1361222E-1,-2.6070386E-1,-5.584277E-1,3.5545465E-1,-2.9325345E-1,-8.903329E-3,4.4031713E-2,9.838336E-4,-2.8519524E-2,1.6985955E-2,-2.3607755E-2,1.5785784E-3,-2.6099315E-2,4.3356866E-3,-4.2395503E-3,-8.0166245E-3,3.5114713E-2,-1.4231689E-2,2.1446925E-2,-1.4307827E-2,-2.9280746E-2,2.7546886E-2,-2.5826811E-3,2.9281343E-3,-2.2888951E-2],"categories":[],"categories_nodes":[],"categories_segments":[],"categories_sizes":[],"default_left":[0,0,0,0,0,0,0,0,0,0,0,0,0,0,0,0,0,0,0,0,0,0,0,0,0,0,0,0,0,0,0,0,0,0,0,0,0,0,0,0,0,0,0,0,0],"id":25,"left_children":[1,3,5,7,9,11,-1,13,15,17,19,21,23,-1,-1,25,27,29,31,33,35,37,39,41,43,-1,-1,-1,-1,-1,-1,-1,-1,-1,-1,-1,-1,-1,-1,-1,-1,-1,-1,-1,-1],"loss_changes":[5.741859E0,2.2102263E0,1.4011173E0,1.7336321E0,2.1056838E0,1.2099295E0,0E0,5.5664825E-1,9.6385276E-1,1.7361879E0,2.271332E0,1.5727501E0,9.811225E-1,0E0,0E0,1.4025968E0,1.1013012E0,1.7585487E0,3.1314695E-1,1.4637431E0,3.266627E0,1.4969854E0,1.4270306E-2,4.482816E-1,2.7087876E-1,0E0,0E0,0E0,0E0,0E0,0E0,0E0,0E0,0E0,0E0,0E0,0E0,0E0,0E0,0E0,0E0,0E0,0E0,0E0,0E0],"parents":[2147483647,0,0,1,1,2,2,3,3,4,4,5,5,7,7,8,8,9,9,10,10,11,11,12,12,15,15,16,16,17,17,18,18,19,19,20,20,21,21,22,22,23,23,24,24],"right_children":[2,4,6,8,10,12,-1,14,16,18,20,22,24,-1,-1,26,28,30,32,34,36,38,40,42,44,-1,-1,-1,-1,-1,-1,-1,-1,-1,-1,-1,-1,-1,-1,-1,-1,-1,-1,-1,-1],"split_conditions":[4.33E0,2E0,2.6E1,1.2E0,1.85E0,3E0,1.8918028E-2,3E0,1.4E0,2.8E0,2.6E0,5.75E0,1.5E1,1.5014069E-3,-3.2059703E-2,2.4E0,1.8E0,6E0,4.5E0,3.25E0,1.5E1,3E0,8E-1,3E0,2.4E0,-8.903329E-3,4.4031713E-2,9.838336E-4,-2.8519524E-2,1.6985955E-2,-2.3607755E-2,1.5785784E-3,-2.6099315E-2,4.3356866E-3,-4.2395503E-3,-8.0166245E-3,3.5114713E-2,-1.4231689E-2,2.1446925E-2,-1.4307827E-2,-2.9280746E-2,2.7546886E-2,-2.5826811E-3,2.9281343E-3,-2.2888951E-2],"split_indices":[3,0,0,8,4,6,0,1,7,9,8,3,1,0,0,9,9,2,2,3,0,5,10,5,5,0,0,0,0,0,0,0,0,0,0,0,0,0,0,0,0,0,0,0,0],"split_type":[0,0,0,0,0,0,0,0,0,0,0,0,0,0,0,0,0,0,0,0,0,0,0,0,0,0,0,0,0,0,0,0,0,0,0,0,0,0,0,0,0,0,0,0,0],"sum_hessian":[5.8064813E2,4.6500436E2,1.1564379E2,2.7901726E1,4.3710263E2,1.1336977E2,2.274021E0,1.224719E1,1.5654534E1,3.7171562E1,3.9993106E2,1.0587783E2,7.491936E0,1.2806494E0,1.0966541E1,3.4523134E0,1.2202221E1,3.332672E1,3.8448412E0,3.838095E2,1.612156E1,8.231136E1,2.3566465E1,4.2753086E0,3.2166276E0,2.1426597E0,1.3096538E0,8.064831E0,4.137391E0,3.128289E1,2.043833E0,1.2802215E0,2.5646198E0,5.786096E1,3.2594855E2,7.52876E0,8.592799E0,8.01186E1,2.1927657E0,3.1859236E0,2.0380543E1,2.649696E0,1.6256124E0,1.2301552E0,1.9864724E0],"tree_param":{"num_deleted":"0","num_feature":"11","num_nodes":"45","size_leaf_vector":"1"}},{"base_weights":[5.574979E-3,3.0535555E-1,-1.5289424E-1,2.2402361E-1,7.0488626E-1,-4.2894226E-2,-3.7345842E-1,5.228107E-1,1.759526E-1,7.8422314E-1,-9.4733894E-2,3.2314833E-2,-5.2771237E-2,2.2435917E-2,-3.8487244E-1,6.4223176E-1,-4.8436224E-2,1.5648054E-1,4.4570472E-2,3.4206468E-1,8.589775E-1,-2.0846732E-2,1.0116992E-2,-2.8754628E-1,-2.5764957E-2,-5.476899E-1,-3.303889E-1,1.4662934E-2,4.166865E-2,-2.7807808E-2,3.7201755E-2,-5.5517335E-3,1.06304055E-2,3.1790197E-2,-1.1036189E-2,2.5767712E-2,4.8031244E-2,3.8179762E-3,-2.2547768E-2,-6.4127925E-3,3.2705653E-3,-1.1895055E-2,-3.1233264E-2,2.095633E-2,-1.722516E-2],"categories":[],"categories_nodes":[],"categories_segments":[],"categories_sizes":[],"default_left":[0,0,0,0,0,0,0,0,0,0,0,0,0,0,0,0,0,0,0,0,0,0,0,0,0,0,0,0,0,0,0,0,0,0,0,0,0,0,0,0,0,0,0,0,0],"id":26,"left_children":[1,3,5,7,9,11,13,15,17,19,21,-1,23,-1,25,27,29,31,-1,33,35,-1,-1,37,39,41,43,-1,-1,-1,-1,-1,-1,-1,-1,-1,-1,-1,-1,-1,-1,-1,-1,-1,-1],"loss_changes":[2.9392519E1,6.794409E0,9.80468E0,2.4823112E0,2.3404484E0,1.8802764E0,1.4355087E0,1.6910353E0,2.0324073E0,7.838783E-1,4.7838724E-1,0E0,1.6937422E0,0E0,1.0011902E0,1.1026955E0,2.4807296E0,2.3206182E0,0E0,1.1945374E0,4.5597076E-1,0E0,0E0,1.6745346E0,2.2672238E0,6.118889E-1,1.2273388E0,0E0,0E0,0E0,0E0,0E0,0E0,0E0,0E0,0E0,0E0,0E0,0E0,0E0,0E0,0E0,0E0,0E0,0E0],"parents":[2147483647,0,0,1,1,2,2,3,3,4,4,5,5,6,6,7,7,8,8,9,9,10,10,12,12,14,14,15,15,16,16,17,17,19,19,20,20,23,23,24,24,25,25,26,26],"right_children":[2,4,6,8,10,12,14,16,18,20,22,-1,24,-1,26,28,30,32,-1,34,36,-1,-1,38,40,42,44,-1,-1,-1,-1,-1,-1,-1,-1,-1,-1,-1,-1,-1,-1,-1,-1,-1,-1],"split_conditions":[2.62E0,5.75E0,4.8E0,1E0,2.8E0,3E0,3.5E0,1.4E0,2.2E0,6E-1,3E0,3.2314833E-2,6E-1,2.2435917E-2,1.1E1,9E0,3.25E0,1E0,4.4570472E-2,1.2E0,6E-1,-2.0846732E-2,1.0116992E-2,9E0,1.3E1,1.2E0,3.6E0,1.4662934E-2,4.166865E-2,-2.7807808E-2,3.7201755E-2,-5.5517335E-3,1.06304055E-2,3.1790197E-2,-1.1036189E-2,2.5767712E-2,4.8031244E-2,3.8179762E-3,-2.2547768E-2,-6.4127925E-3,3.2705653E-3,-1.1895055E-2,-3.1233264E-2,2.095633E-2,-1.722516E-2],"split_indices":[4,2,4,8,7,3,3,6,10,10,7,0,7,0,0,0,2,7,0,6,5,0,0,1,1,10,3,0,0,0,0,0,0,0,0,0,0,0,0,0,0,0,0,0,0],"split_type":[0,0,0,0,0,0,0,0,0,0,0,0,0,0,0,0,0,0,0,0,0,0,0,0,0,0,0,0,0,0,0,0,0,0,0,0,0,0,0,0,0,0,0,0,0],"sum_hessian":[6.1672906E2,2.1295305E2,4.0377603E2,1.7823143E2,3.4721615E1,2.7021072E2,1.3356532E2,2.3332382E1,1.5489905E2,3.1605072E1,3.1165435E0,2.9073775E0,2.6730334E2,1.3042527E0,1.3226106E2,1.9195282E1,4.1370997E0,1.519814E2,2.917652E0,5.376993E0,2.6228079E1,1.3014944E0,1.8150492E0,2.6580692E1,2.4072264E2,3.0891905E1,1.0136916E2,7.689871E0,1.1505411E1,2.7033315E0,1.4337682E0,2.6187632E1,1.2579377E2,3.4477508E0,1.9292424E0,7.373081E0,1.8854998E1,8.402145E0,1.8178547E1,1.13137985E2,1.2758466E2,6.9623575E0,2.3929546E1,1.3432395E0,1.0002592E2],"tree_param":{"num_deleted":"0","num_feature":"11","num_nodes":"45","size_leaf_vector":"1"}},{"base_weights":[7.183119E-2,3.1420094E-1,-1.911327E-1,1.7665705E-1,4.4259638E-1,-4.4561526E-1,-1.1547696E-1,2.0191698E-1,-3.0093142E-1,7.9204214E-1,3.973511E-1,-5.707043E-1,-2.1855456E-1,-1.25377895E-2,-1.819251E-1,2.3846589E-1,-8.994289E-2,-2.8859919E-2,1.4087012E-1,-3.006779E-3,8.64534E-1,4.236119E-1,-3.8536706E-3,-2.6026765E-1,-6.400615E-1,-3.899808E-1,1.2494449E-1,6.195187E-1,-7.722541E-2,-3.3791757E-1,-1.2177797E-1,9.248036E-3,2.5914297E-2,3.572027E-2,-1.0140952E-2,-1.9908395E-2,2.576524E-2,1.8512456E-2,4.5215234E-2,-1.2496415E-3,2.2129063E-2,3.225417E-2,-2.0529924E-2,-2.4434987E-2,2.229702E-2,-1.6988523E-2,-3.3188384E-2,-2.4417108E-2,-3.7815315E-3,1.4703944E-2,-1.2356627E-2,5.8657345E-3,4.39482E-2,9.083713E-3,-1.0948663E-2,-6.398519E-3,-2.696732E-2,-1.0456562E-2,6.6483667E-4],"categories":[],"categories_nodes":[],"categories_segments":[],"categories_sizes":[],"default_left":[0,0,0,0,0,0,0,0,0,0,0,0,0,0,0,0,0,0,0,0,0,0,0,0,0,0,0,0,0,0,0,0,0,0,0,0,0,0,0,0,0,0,0,0,0,0,0,0,0,0,0,0,0,0,0,0,0,0,0],"id":27,"left_children":[1,3,5,7,9,11,13,15,17,19,21,23,25,27,29,31,33,-1,35,-1,37,39,41,43,45,47,49,51,53,55,57,-1,-1,-1,-1,-1,-1,-1,-1,-1,-1,-1,-1,-1,-1,-1,-1,-1,-1,-1,-1,-1,-1,-1,-1,-1,-1,-1,-1],"loss_changes":[4.1240322E1,5.8662605E0,5.926944E0,2.0413723E0,2.427311E0,1.8864555E0,1.644187E0,1.6911616E0,1.1369371E0,1.2179565E0,1.640543E0,8.030882E-1,1.6252612E0,3.952478E0,1.3306408E0,1.9909396E0,1.7924297E0,0E0,1.03902E0,0E0,8.400917E-3,1.25354E0,3.048834E0,1.8165717E0,3.1647682E-2,5.227995E-1,6.8125486E-1,1.0665803E0,3.2517314E0,1.6277604E0,1.2662934E0,0E0,0E0,0E0,0E0,0E0,0E0,0E0,0E0,0E0,0E0,0E0,0E0,0E0,0E0,0E0,0E0,0E0,0E0,0E0,0E0,0E0,0E0,0E0,0E0,0E0,0E0,0E0,0E0],"parents":[2147483647,0,0,1,1,2,2,3,3,4,4,5,5,6,6,7,7,8,8,9,9,10,10,11,11,12,12,13,13,14,14,15,15,16,16,18,18,20,20,21,21,22,22,23,23,24,24,25,25,26,26,27,27,28,28,29,29,30,30],"right_children":[2,4,6,8,10,12,14,16,18,20,22,24,26,28,30,32,34,-1,36,-1,38,40,42,44,46,48,50,52,54,56,58,-1,-1,-1,-1,-1,-1,-1,-1,-1,-1,-1,-1,-1,-1,-1,-1,-1,-1,-1,-1,-1,-1,-1,-1,-1,-1,-1,-1],"split_conditions":[2.25E0,3.8E0,1.85E0,2.5E1,3E0,2.4E0,2.6E0,2.2E0,1.2E0,8E-1,2.2E0,6E-1,1.4E0,2.75E0,8E-1,1.8E0,1.6E0,-2.8859919E-2,1.4E0,-3.006779E-3,6E-1,6E-1,2E0,2.4E0,9E0,1.75E0,5.75E0,1.4E0,1.2E0,1.1E1,1.7E1,9.248036E-3,2.5914297E-2,3.572027E-2,-1.0140952E-2,-1.9908395E-2,2.576524E-2,1.8512456E-2,4.5215234E-2,-1.2496415E-3,2.2129063E-2,3.225417E-2,-2.0529924E-2,-2.4434987E-2,2.229702E-2,-1.6988523E-2,-3.3188384E-2,-2.4417108E-2,-3.7815315E-3,1.4703944E-2,-1.2356627E-2,5.8657345E-3,4.39482E-2,9.083713E-3,-1.0948663E-2,-6.398519E-3,-2.696732E-2,-1.0456562E-2,6.6483667E-4],"split_indices":[2,3,4,0,1,9,2,5,8,6,8,6,6,4,5,8,6,0,7,0,7,10,5,7,1,4,2,9,7,0,1,0,0,0,0,0,0,0,0,0,0,0,0,0,0,0,0,0,0,0,0,0,0,0,0,0,0,0,0],"split_type":[0,0,0,0,0,0,0,0,0,0,0,0,0,0,0,0,0,0,0,0,0,0,0,0,0,0,0,0,0,0,0,0,0,0,0,0,0,0,0,0,0,0,0,0,0,0,0,0,0,0,0,0,0,0,0,0,0,0,0],"sum_hessian":[6.4512213E2,3.3560516E2,3.0951697E2,1.6317715E2,1.7242802E2,6.980945E1,2.3970752E2,1.5552838E2,7.6487703E0,1.7874125E1,1.545539E2,4.4036213E1,2.5773235E1,9.450002E1,1.4520749E2,1.3838206E2,1.7146309E1,4.5174546E0,3.131316E0,1.4146519E0,1.6459473E1,1.4500665E2,9.547243E0,8.909714E0,3.51265E1,1.7102676E1,8.67056E0,7.9773197E0,8.6522705E1,3.9123066E1,1.0608443E2,1.1756344E2,2.0818632E1,1.4542571E0,1.5692051E1,1.2575527E0,1.8737631E0,1.9934698E0,1.4466003E1,5.8699903E0,1.3913666E2,3.4527E0,6.094543E0,6.9648404E0,1.944873E0,3.6919823E0,3.1434517E1,1.260502E1,4.497656E0,6.1050344E0,2.5655258E0,3.2120273E0,4.765292E0,3.0511806E1,5.6010895E1,1.9957197E1,1.9165869E1,6.4089355E1,4.199507E1],"tree_param":{"num_deleted":"0","num_feature":"11","num_nodes":"59","size_leaf_vector":"1"}},{"base_weights":[-8.602179E-2,-3.7713654E-2,-2.7998415E-1,-3.017755E-1,-2.0301998E-2,-3.1421772E-1,5.9553467E-2,-5.669009E-1,-7.500013E-2,1.9546075E-1,-4.092174E-2,-5.504493E-1,-2.4809685E-1,4.304001E-1,-3.9037088E-1,1.4736119E-3,-3.1708065E-2,3.2553536E-1,-2.0523834E-1,2.678023E-1,-3.6362603E-1,-5.632143E-2,3.0510843E-1,4.2502885E-3,-5.904142E-1,-4.4392136E-1,-1.6619651E-1,-4.300592E-2,4.2950507E-2,3.392631E-3,-2.642036E-2,-8.759368E-3,4.295261E-2,9.303037E-4,-2.8207166E-2,8.488897E-3,4.0979777E-2,1.5662959E-3,-2.5777115E-2,-4.634225E-3,2.433133E-3,-7.8044343E-3,3.3857334E-2,-3.173481E-2,-4.783091E-3,-2.5203675E-2,2.5485253E-3,-2.0879887E-2,-3.275739E-3,-2.218194E-2,2.4810065E-2],"categories":[],"categories_nodes":[],"categories_segments":[],"categories_sizes":[],"default_left":[0,0,0,0,0,0,0,0,0,0,0,0,0,0,0,0,0,0,0,0,0,0,0,0,0,0,0,0,0,0,0,0,0,0,0,0,0,0,0,0,0,0,0,0,0,0,0,0,0,0,0],"id":28,"left_children":[1,3,5,7,9,11,13,15,17,19,21,23,25,27,29,-1,-1,31,33,35,37,39,41,-1,43,45,47,49,-1,-1,-1,-1,-1,-1,-1,-1,-1,-1,-1,-1,-1,-1,-1,-1,-1,-1,-1,-1,-1,-1,-1],"loss_changes":[5.4197316E0,2.132467E0,1.360116E0,1.6830912E0,1.954148E0,1.5034142E0,2.0718827E0,5.4332495E-1,9.338842E-1,1.6476855E0,2.1492574E0,6.124582E-1,1.2710643E0,1.4026078E0,3.9511818E-1,0E0,0E0,1.3433511E0,1.0674741E0,1.7277589E0,3.0508608E-1,1.4700783E0,3.0575168E0,0E0,3.9840126E-1,7.440033E-1,1.5096424E0,1.1167322E0,0E0,0E0,0E0,0E0,0E0,0E0,0E0,0E0,0E0,0E0,0E0,0E0,0E0,0E0,0E0,0E0,0E0,0E0,0E0,0E0,0E0,0E0,0E0],"parents":[2147483647,0,0,1,1,2,2,3,3,4,4,5,5,6,6,7,7,8,8,9,9,10,10,11,11,12,12,13,13,14,14,17,17,18,18,19,19,20,20,21,21,22,22,24,24,25,25,26,26,27,27],"right_children":[2,4,6,8,10,12,14,16,18,20,22,24,26,28,30,-1,-1,32,34,36,38,40,42,-1,44,46,48,50,-1,-1,-1,-1,-1,-1,-1,-1,-1,-1,-1,-1,-1,-1,-1,-1,-1,-1,-1,-1,-1,-1,-1],"split_conditions":[4.33E0,2E0,2E0,1.2E0,1.85E0,1.1E1,8E0,3E0,1.4E0,2.8E0,2.6E0,6E-1,1E0,2.2E0,1.8E0,1.4736119E-3,-3.1708065E-2,2.4E0,1.8E0,1.8E0,4.5E0,2.1E1,1.5E1,4.2502885E-3,2.4E0,3E0,6E0,1.2E0,4.2950507E-2,3.392631E-3,-2.642036E-2,-8.759368E-3,4.295261E-2,9.303037E-4,-2.8207166E-2,8.488897E-3,4.0979777E-2,1.5662959E-3,-2.5777115E-2,-4.634225E-3,2.433133E-3,-7.8044343E-3,3.3857334E-2,-3.173481E-2,-4.783091E-3,-2.5203675E-2,2.5485253E-3,-2.0879887E-2,-3.275739E-3,-2.218194E-2,2.4810065E-2],"split_indices":[3,0,7,8,4,0,2,1,7,9,8,5,9,8,9,0,0,9,9,5,2,1,0,0,5,6,4,5,0,0,0,0,0,0,0,0,0,0,0,0,0,0,0,0,0,0,0,0,0,0,0],"split_type":[0,0,0,0,0,0,0,0,0,0,0,0,0,0,0,0,0,0,0,0,0,0,0,0,0,0,0,0,0,0,0,0,0,0,0,0,0,0,0,0,0,0,0,0,0,0,0,0,0,0,0],"sum_hessian":[5.7854254E2,4.6413882E2,1.1440368E2,2.7700874E1,4.3643796E2,1.0399323E2,1.0410449E1,1.20791645E1,1.562171E1,3.733101E1,3.9910693E2,2.1140203E1,8.285303E1,5.730513E0,4.6799364E0,1.2811849E0,1.0797979E1,3.4652178E0,1.2156491E1,3.3515377E1,3.8156335E0,3.8290347E2,1.6203465E1,1.1841897E0,1.9956015E1,2.312962E1,5.9723408E1,3.1504533E0,2.5800598E0,1.201129E0,3.4788072E0,2.134014E0,1.3312039E0,8.070921E0,4.085571E0,2.9570036E1,3.9453416E0,1.2804677E0,2.5351658E0,2.844845E2,9.8418976E1,7.493991E0,8.709473E0,1.8056997E1,1.8990169E0,2.0606436E1,2.5231838E0,1.6178404E1,4.3545002E1,1.9091712E0,1.2412822E0],"tree_param":{"num_deleted":"0","num_feature":"11","num_nodes":"51","size_leaf_vector":"1"}},{"base_weights":[5.584277E-3,2.9341346E-1,-1.4787763E-1,2.1840866E-1,6.932886E-1,-4.7728583E-2,-3.795303E-1,5.936007E-1,1.8633063E-1,7.549068E-1,-1.4015798E-2,3.141434E-2,-5.706044E-2,-4.14493E-1,7.532914E-2,7.2525966E-1,-8.41098E-3,1.6616601E-1,7.671227E-1,8.157516E-1,4.505521E-1,1.7536988E-2,-1.9866522E-2,-2.9587868E-1,-3.378392E-2,-4.278828E-1,1.9317118E-2,-2.5500435E-2,3.9538002E-1,-1.8876769E-3,4.13831E-2,1.9637521E-2,6.3572153E-3,1.42512E-2,4.3749835E-2,1.7834751E-2,4.3103177E-2,3.4242522E-2,-1.0095206E-3,-6.6090235E-3,-3.1597674E-2,-6.1129523E-3,3.221002E-3,-2.2004135E-2,6.385715E-3,4.200167E-2,-2.260649E-2],"categories":[],"categories_nodes":[],"categories_segments":[],"categories_sizes":[],"default_left":[0,0,0,0,0,0,0,0,0,0,0,0,0,0,0,0,0,0,0,0,0,0,0,0,0,0,0,0,0,0,0,0,0,0,0,0,0,0,0,0,0,0,0,0,0,0,0],"id":29,"left_children":[1,3,5,7,9,11,13,15,17,19,21,-1,23,25,27,29,-1,31,33,35,37,-1,-1,39,41,43,-1,-1,45,-1,-1,-1,-1,-1,-1,-1,-1,-1,-1,-1,-1,-1,-1,-1,-1,-1,-1],"loss_changes":[2.7265705E1,6.2866707E0,9.323054E0,2.0823984E0,1.4681587E0,1.8164403E0,1.9616508E0,1.515595E0,1.8554921E0,2.0249748E-1,6.513413E-1,0E0,1.5427428E0,1.3756809E0,1.9833401E0,9.715986E-1,0E0,1.4081802E0,3.1688213E-2,2.116661E-1,8.2583857E-1,0E0,0E0,1.2741249E0,2.2291098E0,8.1193924E-1,0E0,0E0,2.909185E0,0E0,0E0,0E0,0E0,0E0,0E0,0E0,0E0,0E0,0E0,0E0,0E0,0E0,0E0,0E0,0E0,0E0,0E0],"parents":[2147483647,0,0,1,1,2,2,3,3,4,4,5,5,6,6,7,7,8,8,9,9,10,10,12,12,13,13,14,14,15,15,17,17,18,18,19,19,20,20,23,23,24,24,25,25,28,28],"right_children":[2,4,6,8,10,12,14,16,18,20,22,-1,24,26,28,30,-1,32,34,36,38,-1,-1,40,42,44,-1,-1,46,-1,-1,-1,-1,-1,-1,-1,-1,-1,-1,-1,-1,-1,-1,-1,-1,-1,-1],"split_conditions":[2.62E0,6E0,5.25E0,2E0,2.8E0,3E0,1.8E0,1.6E0,2.2E0,2E1,5E0,3.141434E-2,3E0,1.72E0,1.1E1,1E0,-8.41098E-3,1E0,2.8E0,4E-1,1E0,1.7536988E-2,-1.9866522E-2,3.5E0,1.4E0,3.2E0,1.9317118E-2,-2.5500435E-2,1.53E0,-1.8876769E-3,4.13831E-2,1.9637521E-2,6.3572153E-3,1.42512E-2,4.3749835E-2,1.7834751E-2,4.3103177E-2,3.4242522E-2,-1.0095206E-3,-6.6090235E-3,-3.1597674E-2,-6.1129523E-3,3.221002E-3,-2.2004135E-2,6.385715E-3,4.200167E-2,-2.260649E-2],"split_indices":[4,2,4,0,7,3,7,6,10,0,3,0,1,2,1,7,0,9,2,5,5,0,0,3,7,10,0,0,2,0,0,0,0,0,0,0,0,0,0,0,0,0,0,0,0,0,0],"split_type":[0,0,0,0,0,0,0,0,0,0,0,0,0,0,0,0,0,0,0,0,0,0,0,0,0,0,0,0,0,0,0,0,0,0,0,0,0,0,0,0,0,0,0,0,0,0,0],"sum_hessian":[6.1529645E2,2.136563E2,4.0164014E2,1.8121239E2,3.244391E1,2.812535E2,1.2038665E2,1.28941765E1,1.683182E2,2.9782085E1,2.6618216E0,2.9264896E0,2.7832703E2,1.1187606E2,8.510584E0,1.1035069E1,1.859107E0,1.6391338E2,4.4048347E0,2.3419853E1,6.362232E0,1.407475E0,1.2543466E0,2.3678009E1,2.54649E2,1.1049432E2,1.3817394E0,2.7986453E0,5.7119384E0,1.3804528E0,9.654617E0,2.2749668E1,1.4116371E2,1.471365E0,2.93347E0,2.943643E0,2.0476212E1,3.9442618E0,2.4179704E0,1.685933E1,6.81868E0,1.3383119E2,1.2081781E2,1.0832365E2,2.170679E0,3.752158E0,1.9597806E0],"tree_param":{"num_deleted":"0","num_feature":"11","num_nodes":"47","size_leaf_vector":"1"}},{"base_weights":[6.888158E-2,3.0176103E-1,-1.858021E-1,1.7002632E-1,4.2472354E-1,-4.3671492E-1,-1.12080105E-1,1.9461104E-1,-2.979291E-1,7.674196E-1,3.80628E-1,-5.621259E-1,-2.110205E-1,-2.4603945E-1,-6.2031623E-2,2.550149E-1,2.1100217E-2,-2.8648717E-2,1.3904658E-1,-3.086664E-3,8.383951E-1,6.895798E-1,3.4179693E-1,-2.5638142E-1,-6.333389E-1,-3.806521E-1,1.2423093E-1,1.8220074E-1,-3.0273342E-1,1.6192971E-1,-1.3974603E-1,2.3518315E-2,9.366504E-3,-2.5812143E-3,2.9389367E-2,-1.9758526E-2,2.5400875E-2,1.7923895E-2,4.3864634E-2,3.8457613E-2,3.5790806E-3,1.356525E-2,2.848928E-2,2.7649328E-3,-2.7509023E-2,-3.2949876E-2,-1.7076787E-2,-2.6800824E-2,-8.19476E-3,1.9548545E-2,-5.7841507E-3,-2.8721271E-2,3.81164E-2,-2.396312E-2,-5.613108E-3,1.3933541E-2,-8.068756E-3,1.4183021E-3,-1.2428912E-2],"categories":[],"categories_nodes":[],"categories_segments":[],"categories_sizes":[],"default_left":[0,0,0,0,0,0,0,0,0,0,0,0,0,0,0,0,0,0,0,0,0,0,0,0,0,0,0,0,0,0,0,0,0,0,0,0,0,0,0,0,0,0,0,0,0,0,0,0,0,0,0,0,0,0,0,0,0,0,0],"id":30,"left_children":[1,3,5,7,9,11,13,15,17,19,21,23,25,27,29,31,33,-1,35,-1,37,39,41,43,45,47,49,51,53,55,57,-1,-1,-1,-1,-1,-1,-1,-1,-1,-1,-1,-1,-1,-1,-1,-1,-1,-1,-1,-1,-1,-1,-1,-1,-1,-1,-1,-1],"loss_changes":[3.8314014E1,5.391943E0,5.661644E0,1.9507303E0,2.3343258E0,1.8559656E0,1.5935099E0,1.6391983E0,1.1141386E0,1.1599112E0,1.635519E0,8.0092144E-1,1.5554183E0,